689 40
the 0.425816 -1.047547 -0.020376 -0.827456 0.154831 -0.160470 0.259420 -0.385022 -0.190260 0.383192 -0.358127 -0.419057 -0.520539 -0.459740 0.338165 0.105772 -0.591158 0.155972 0.134018 -0.373734 0.495020 -0.232914 -0.195833 -0.783148 -0.031150 0.039979 -0.341741 -0.365124 0.733748 0.340749 -0.245135 -0.005995 0.152867 0.514497 0.022964 0.130176 -0.163530 0.123354 0.701439 0.666369
and 0.882969 -0.587978 0.230589 0.140445 -0.188086 -0.260756 -0.222860 0.194969 -0.114460 0.163428 -0.430988 -0.654027 -0.481850 0.015030 0.079725 -0.148288 -0.158385 0.159206 -0.262943 -0.405548 0.776143 0.449835 -0.054237 -0.366667 -0.234364 0.059914 -0.675800 -0.206192 0.116540 -0.329058 0.157055 0.081448 -0.324319 0.064107 0.313669 -0.031234 0.464351 -0.169637 0.402091 0.061955
to -0.037535 -0.276912 0.870971 0.609022 -0.084694 -0.096041 -0.244696 -0.301153 -0.646269 -0.103054 -0.628658 -0.075301 0.101719 -0.591109 0.065347 -1.174211 0.319368 -0.139369 0.557310 -0.230378 0.040417 -0.024778 -0.149507 -0.349417 -0.914167 0.348490 -0.143549 0.053771 0.289784 0.205078 0.426664 -0.868768 -0.715933 -0.307372 0.623901 0.094754 -0.293765 0.303597 0.346284 1.032880
a 0.812662 -0.655472 -0.223725 -0.038272 0.225566 0.289652 -0.136849 -1.003025 0.322442 0.816028 -0.900833 -0.205932 0.289498 0.143619 -0.370991 -0.451838 -0.921209 0.148425 -0.347513 -0.957770 0.308038 0.462641 -0.269979 -0.144311 -0.558572 0.058395 -0.092964 0.852584 -0.756527 0.065317 0.696192 -0.554902 0.553707 0.181998 -0.315341 -0.665517 -0.126905 -0.340372 0.354258 0.312843
it 0.346936 -0.698452 0.034850 0.896167 0.205981 -0.174491 0.008522 -0.188690 -0.607658 -0.051349 -0.303414 -0.121481 -0.273914 0.156342 0.355352 -0.271747 -0.453215 -0.283013 0.151552 -0.598837 0.311883 -0.125288 0.353535 -0.542502 0.018070 -0.183423 0.450489 -0.203374 -0.362170 0.022585 0.326872 0.080182 -0.439770 0.424270 0.468173 -0.069177 0.129104 -0.741431 0.170917 0.481643
she 0.274963 -0.132117 0.463567 0.356761 0.066449 -0.401472 -0.456393 -0.112893 -0.044008 0.252205 -0.319363 0.222187 -0.676049 0.350485 0.206088 0.139193 -0.573994 -0.005829 0.255897 -0.592702 0.771505 0.512987 0.286046 -0.487036 -1.285131 0.161576 0.354193 0.458074 -0.862357 0.396301 -0.472786 -0.397768 -1.102150 0.781802 0.502378 -0.149338 0.167689 -0.516188 0.637996 0.279625
i 0.163841 -0.468852 0.086618 0.661317 -0.302886 0.681681 -0.120239 -0.380649 -0.500782 0.178259 0.166354 0.017568 -0.886035 0.000990 0.406416 0.003936 -0.466246 -0.594133 -0.513226 0.161305 0.637815 0.308479 -0.164703 -0.176787 -0.199038 0.008932 0.173232 0.056587 0.414489 -0.749249 1.033224 -0.838649 0.048771 1.258592 0.455391 -0.394379 -0.689060 0.282139 0.613813 0.866048
of 0.327888 -0.545736 -0.191430 -0.216777 0.538365 0.057492 0.723145 -1.115041 0.162959 0.553835 -0.598225 -0.392988 -0.335186 -0.153705 0.870507 0.139837 -0.292044 -0.143735 -0.456718 -0.207273 0.679702 -0.569502 0.152257 0.102447 -0.501806 -0.009063 -0.542718 0.118750 0.220606 0.059374 0.377635 -0.632253 -0.434006 -0.321333 -0.178587 0.162850 0.301464 0.526479 -0.437038 1.051747
said 0.565668 -0.449530 0.243640 0.419252 0.043377 0.444279 -0.196257 -0.185496 0.005281 0.588891 0.244844 -0.097472 0.113696 -0.639943 0.157483 -0.317458 -1.147190 0.027500 0.252555 -0.341852 1.058638 -0.935553 -0.314120 -0.595908 -0.237681 0.541283 0.341088 -0.375938 0.846622 -0.419539 0.313174 0.046811 0.766329 -0.323105 0.974037 -0.417950 0.072370 0.473512 0.393145 0.313247
you 0.405446 0.079981 0.558284 0.713157 -0.166643 0.058983 -0.147516 -0.291877 -1.001284 0.580613 0.048662 -0.394445 -0.315022 0.058455 0.524932 -0.920370 -0.642820 -0.689004 -0.025741 0.524238 1.088217 -0.143995 0.585536 -0.155611 -0.147697 0.142788 -0.000329 0.308522 0.485387 0.376591 0.378708 -0.200406 0.474589 0.495560 -0.257633 -0.738647 -0.277973 -0.054779 0.205816 0.857363
alice -0.127067 -0.763913 -0.167153 0.153533 0.348203 -0.054686 -0.388229 0.059106 -0.115724 0.377857 0.336806 -0.501200 -0.144564 -0.275111 0.442586 -0.572422 -0.651273 0.073067 0.443767 -0.473945 0.476893 0.019050 0.111881 -0.510716 -0.609899 0.017701 -0.263889 0.048049 -0.471888 -0.340758 -0.261169 0.155226 0.023959 0.482701 0.525474 -0.798102 -0.111668 -0.119625 0.408103 0.182037
in 0.672871 -0.864960 0.382746 -0.197677 0.359828 0.029706 0.419603 -0.524169 0.773937 0.486589 -0.184400 -0.599026 0.202721 0.024354 -0.485966 0.077545 -0.495344 0.075130 0.144142 -0.813864 0.287663 0.211051 -0.208815 -0.561643 -0.379711 -0.086831 -0.282837 0.688891 0.071037 -0.450748 0.441134 -0.370845 -0.132421 -0.500050 0.268999 0.299397 0.062264 0.153033 0.384757 0.726344
was 0.459025 -0.599210 0.440143 -0.013312 0.535821 0.338804 -0.223595 -0.095244 0.096527 0.612399 -0.594641 0.178808 -0.375528 -0.621461 0.228529 -0.290886 -0.119873 -0.031038 0.125415 -0.885057 0.749118 -0.134885 -0.125833 -0.330947 -0.627441 -0.109731 0.052937 -0.341787 -0.505514 -0.168638 -0.217746 -0.328229 0.499473 -0.080827 0.841206 0.251056 0.171650 -0.694592 0.064754 0.337602
that 0.497618 -0.635209 0.163728 0.319982 0.121162 -0.030849 0.393166 -0.444817 -0.637082 -0.209757 -0.574425 -0.044404 -0.325559 -0.256365 0.264470 -0.481388 -0.451063 -0.439318 0.235040 -0.585393 0.461842 0.151665 -0.063582 -0.665427 -0.299374 0.258595 0.488338 0.119290 -0.213231 0.206055 0.221762 0.027177 -0.420897 0.502559 0.338453 -0.169159 0.070662 -0.141560 0.268652 0.255787
as 0.661614 -0.535931 0.517770 0.515703 0.322226 0.517983 -0.411559 0.443072 0.020197 0.303912 0.042851 0.511983 -0.789459 0.096581 -0.244233 -0.123743 -0.557112 -0.366785 -0.037520 -0.392092 0.813567 0.105900 0.031130 -1.071325 -0.083511 0.200288 0.034264 0.466401 -0.098375 -0.325183 -0.381370 0.029247 -0.685607 0.325012 0.566573 0.668647 0.117699 -0.612126 0.709409 0.606820
her 0.635542 -0.114418 0.275059 -0.140263 -0.070762 -0.419335 -0.099050 -0.135430 -0.026936 0.334245 -0.398817 -0.422918 -0.109899 0.185032 -0.136107 -0.098205 0.012509 0.075127 0.149854 -0.714654 0.507360 0.093503 -0.039023 -0.361655 -0.437321 -0.129974 -0.265954 -0.029829 -0.014031 0.226689 0.282039 -0.358032 -0.665613 -0.161320 -0.166333 0.021598 -0.303105 -0.891587 0.289850 0.584180
t 0.521698 0.235898 0.308429 0.827656 0.247606 0.449288 0.822949 0.377620 -0.706597 -0.370694 -0.065371 -0.453348 0.671816 0.138469 0.931064 -0.649448 -0.708430 -0.810765 -0.802228 -0.314564 0.864270 0.104728 0.458499 -0.607104 -0.380771 -0.083454 0.775688 0.119401 0.815797 -0.262453 0.529495 0.331412 0.975854 0.645543 0.434898 -0.170523 -0.120768 0.303676 -0.261996 0.910717
at 0.518535 -0.626223 -0.138422 -0.522017 -0.123180 -0.340598 0.108421 -0.321210 0.304605 0.462632 0.003300 -0.785749 -0.000844 -0.009845 0.389296 0.321720 -0.248684 0.447675 0.085839 -0.322741 0.605490 0.110951 0.595987 -0.650130 -0.608558 -0.550508 0.203092 -0.186455 0.087398 -0.046252 -0.131455 -0.007028 -0.438684 -0.140653 0.482608 0.122533 -0.213437 -0.365258 0.321989 0.408653
s 0.588275 -0.508488 0.190191 -0.028434 0.451048 0.136535 0.264469 -0.221948 -0.079544 0.654324 -0.233800 -0.075159 -0.007574 -0.671855 0.036750 0.020563 -0.286273 -0.152569 0.291878 -0.780335 0.636275 -0.085391 -0.224164 -0.348389 -0.296042 0.144313 0.228059 -0.035799 0.036325 -0.255101 0.142396 0.015938 0.372858 -0.173686 0.689959 0.087321 -0.022127 -0.071880 0.071203 0.501814
on 1.021477 -0.585966 0.401797 -0.142077 -0.201464 0.078935 -0.218977 0.185796 0.042874 0.309257 -0.087947 -0.727208 -0.370899 0.038227 0.205910 -0.617478 0.216006 0.287291 0.281389 -0.659130 0.841972 0.397371 0.344363 -0.692823 -0.593559 0.204776 -0.033068 -0.142433 0.238134 -0.158487 0.130039 -0.003702 -0.023633 -0.052204 0.296154 0.524823 0.236600 0.241151 0.596080 0.575176
all 0.361224 -0.699243 0.133149 0.382420 -0.075279 -0.297944 0.347961 0.123595 -0.214762 0.253036 -0.132600 -0.695021 -0.146797 0.018753 0.147177 -0.366574 0.090558 -0.464770 0.361993 -0.463305 0.783666 -0.028900 0.363433 -0.236878 0.125404 -0.377575 -0.404647 0.019815 0.269053 -0.011885 0.066233 0.052207 -0.146128 0.147188 0.201163 0.285023 0.024882 -0.530817 0.266493 0.659289
with 0.494886 -0.369964 0.154451 0.057830 0.170675 0.111781 0.127532 -0.284285 -0.046331 0.469947 -0.240775 -0.780982 -0.302441 0.132088 0.120212 -0.084839 0.052644 0.271232 -0.228679 -0.511064 0.777394 0.035632 0.213263 -0.285178 -0.388650 -0.093507 -0.637414 -0.074119 0.026792 -0.168681 0.286135 -0.059029 -0.216824 -0.574169 0.338962 0.383102 -0.067349 -0.043138 0.278698 0.617457
had 0.227705 -0.429518 0.187072 0.378164 0.211924 0.041975 -0.253118 -0.049829 -0.302447 0.582896 -0.037236 0.046619 -0.224104 0.333681 -0.096973 -0.201020 -0.096267 -0.133458 0.179274 -0.365729 0.835095 0.085862 0.156331 -0.307221 -0.482317 0.539687 0.309783 0.289601 -0.462375 0.069367 0.121280 0.009684 -0.287570 0.164745 0.498386 0.245346 -0.358637 -0.127168 0.285128 0.637321
but 0.408371 -0.384198 -0.054948 0.269576 0.269281 0.152536 0.043430 -0.096757 0.005539 0.169792 -0.102186 -0.221945 -0.053905 -0.101801 0.266302 -0.252778 -0.229846 -0.145521 0.045436 -0.398605 0.836369 0.012280 0.197987 -0.322954 -0.420798 0.051361 0.099888 -0.029375 0.139249 -0.202472 0.071273 0.100308 0.030992 0.392606 0.254710 0.044301 -0.356313 -0.117816 0.304091 0.532256
for 0.287795 -0.397438 0.070254 0.345722 0.088942 -0.035111 0.080078 -0.163484 -0.069682 0.526730 -0.514816 -0.367262 -0.248402 0.208039 -0.087815 -0.293067 -0.301501 0.190700 0.041648 -0.496423 0.556990 0.155012 0.174525 -0.300839 -0.272590 0.010509 0.224529 0.103413 -0.139430 -0.086766 0.173406 -0.296617 -0.132390 0.064228 0.479367 0.239476 -0.163565 -0.110745 0.249397 0.466244
so 0.396571 -0.167199 0.189729 0.595262 -0.084373 -0.006487 -0.190096 -0.162563 -0.092710 0.023982 -0.014470 -0.351323 0.069298 -0.012931 0.416881 -0.548967 -0.452176 -0.103841 0.085129 -0.407046 0.742900 0.197524 0.264261 -0.583728 -0.636083 0.203543 0.150364 0.311578 -0.223094 -0.128590 0.146252 0.066584 -0.168645 -0.077723 0.364867 0.082593 -0.191281 -0.255911 0.073283 0.423559
they 0.206945 -0.333445 0.579880 0.461363 -0.037236 -0.260941 0.110655 -0.244722 -0.307491 0.046952 0.258784 -0.504067 -0.151689 -0.033500 0.607541 -0.387129 -0.344989 -0.318403 0.219975 -0.003837 0.997051 0.130330 0.422909 -0.134088 -0.464883 -0.228497 -0.029024 0.207426 0.098186 0.144593 0.241179 -0.072974 -0.106242 0.451743 0.101088 -0.052944 -0.062286 -0.187254 0.394960 0.649488
be 0.036706 -0.198100 0.054962 0.809537 0.296438 0.059472 0.103514 -0.188887 -0.439533 0.301281 0.000289 -0.311243 0.011826 0.049275 0.386485 -0.222916 -0.262903 -0.650306 -0.064070 -0.317040 0.797413 0.137005 0.477337 -0.211484 -0.387789 0.209171 0.523946 0.446651 0.023967 -0.244698 0.609624 -0.234657 0.094538 0.278878 0.240026 0.333409 -0.335004 -0.234494 0.405043 0.976254
not 0.115181 -0.023077 0.370819 0.519966 0.228517 0.105394 0.443760 -0.012240 -0.341040 0.040788 0.117082 -0.284129 -0.461018 -0.368156 0.475409 -0.456009 -0.659961 -0.497478 0.142321 -0.353267 1.030202 -0.184456 0.387339 -0.470599 -0.627367 0.282524 0.664234 0.326408 -0.182276 -0.169746 -0.345925 -0.111439 0.019409 0.186637 0.486391 -0.415070 -0.354927 -0.185758 0.661140 0.345010
very 0.179767 -0.761246 0.121757 0.199868 0.181832 0.040428 -0.150943 -0.325373 -0.239515 0.174670 -0.158894 -0.231143 -0.189624 0.129031 0.060502 -0.362966 -0.514992 0.050635 -0.164268 -0.509131 0.862306 0.252360 0.058198 -0.301067 -0.617704 -0.174425 0.318479 0.513678 -0.266428 -0.155951 0.245992 -0.268780 -0.171910 -0.048396 0.314209 -0.211063 -0.161734 -0.386004 0.519599 0.333605
what 0.332097 -0.461778 0.346274 0.614066 0.138983 0.223736 0.166619 -0.500087 -0.725975 0.065557 -0.368862 -0.198328 -0.147660 -0.079194 0.492004 -0.498379 -0.353171 -0.281607 -0.006700 -0.191497 0.767777 -0.147607 0.277435 -0.330036 -0.232023 0.071690 0.300542 0.450460 0.174158 -0.036295 0.461074 -0.302566 -0.051792 0.398826 0.272367 -0.495471 -0.147850 -0.068416 0.063206 0.523565
this 0.168931 -0.561691 -0.029318 0.132687 0.015675 0.075693 -0.032792 -0.140873 -0.163272 0.357190 -0.363722 -0.223614 -0.309730 -0.022008 0.211351 -0.223960 -0.178659 -0.154107 0.179475 -0.457418 0.653275 -0.118253 0.000135 -0.223855 -0.381721 0.000647 0.084042 -0.032333 -0.013271 -0.181123 0.105684 -0.323382 -0.290903 0.265076 0.396747 -0.041547 -0.300648 -0.225449 0.393572 0.557617
little 0.341781 -0.875418 0.145139 -0.099679 0.433799 -0.002580 0.121047 -0.410350 0.138063 0.478647 -0.612843 -0.384962 -0.101665 0.204903 -0.127901 -0.140770 -0.375532 0.093120 -0.037338 -0.519302 0.691108 0.221090 0.079354 -0.166840 -0.443157 -0.196819 -0.224001 0.271979 -0.167961 -0.082333 -0.031631 -0.384251 0.303388 -0.115088 0.208762 0.030321 -0.158343 -0.225815 0.251456 0.670459
he 0.420527 -0.378221 0.196528 0.183420 -0.152137 -0.019008 -0.003070 -0.153690 -0.235280 0.226744 0.178594 -0.360046 -0.344187 -0.081913 0.289636 -0.300863 -0.492427 -0.115438 0.092649 -0.245035 0.682693 0.119523 0.459885 -0.475027 -0.295389 0.005245 0.172066 0.094233 -0.089673 -0.056092 -0.167039 0.141224 -0.107098 0.348327 0.479701 -0.033007 0.018186 -0.283698 0.616314 0.524367
out 0.427917 -0.400378 0.287325 -0.024896 0.186715 0.025744 0.318485 -0.607354 -0.043985 0.507077 -0.374548 -0.340873 -0.234028 -0.139039 0.050975 -0.298690 -0.366321 0.121116 -0.101544 -0.350184 0.908822 0.267213 0.062365 -0.354365 -0.363451 0.022252 -0.082337 0.113316 -0.004190 -0.023906 0.216700 -0.290399 -0.365149 -0.101244 0.146390 0.212126 0.040616 0.075070 0.132294 0.654036
is 0.245993 -0.636044 0.153452 0.394947 0.239878 -0.086075 0.385647 -0.161415 -0.359672 0.334166 -0.277711 -0.076634 -0.314514 -0.331318 0.197132 -0.277970 -0.334662 -0.259889 0.092052 -0.375099 0.632140 0.084113 0.363402 -0.253932 -0.254710 0.077327 -0.046460 0.147046 0.116744 -0.299869 0.297344 -0.270467 0.217387 0.221907 0.309631 0.003427 -0.208789 -0.083492 0.074262 0.607382
one 0.231746 -0.383616 0.077817 -0.026187 0.293146 0.037810 0.043499 -0.302137 -0.035699 0.268699 -0.588256 -0.484802 -0.252006 0.218980 0.243294 0.026017 -0.236626 0.015334 0.092938 -0.470006 0.656479 0.078252 0.199720 -0.359819 -0.378143 -0.016795 0.013172 0.099812 0.143755 -0.033001 0.234602 -0.261098 -0.115421 0.079219 0.249292 0.299057 -0.014347 -0.344704 0.301788 0.769768
down 0.420832 -0.498955 0.171044 -0.035029 -0.026407 -0.173268 0.048821 -0.192219 -0.025161 0.180773 -0.092188 -0.678982 0.019677 0.054269 0.262183 -0.244242 -0.209613 0.096848 0.201196 -0.479352 0.759422 0.442602 0.015660 -0.287337 -0.342093 -0.044664 -0.355809 0.240692 -0.082272 -0.200193 0.193989 0.074531 -0.370518 -0.041207 0.183291 0.543673 -0.036948 -0.434040 0.454431 0.559718
up 0.402446 -0.518637 0.269148 0.025273 0.046295 -0.038667 -0.155860 -0.371488 0.026585 0.355782 -0.240285 -0.314866 -0.161066 -0.144789 0.171950 -0.207133 -0.043920 0.043512 -0.184606 -0.383441 0.752818 0.370482 0.086677 -0.497772 -0.573922 0.191629 -0.106970 0.122647 0.006269 -0.262787 0.091615 -0.042316 -0.434264 -0.173452 0.171246 0.308141 -0.064849 -0.117113 0.302752 0.594008
there 0.135169 -0.512987 0.025721 0.351656 0.467685 0.094905 0.458416 -0.144190 -0.097688 -0.256467 -0.264700 -0.282153 -0.170459 -0.157965 0.245429 -0.101758 0.019851 -0.187970 0.284818 -0.283088 0.640193 -0.156097 0.072195 -0.487401 -0.251290 -0.099089 0.114291 0.146160 -0.134167 -0.003779 0.249939 -0.053815 -0.317465 0.291644 0.554701 0.073130 -0.127035 -0.184226 0.089127 0.462064
his 0.828161 -0.516253 0.152039 -0.169366 -0.033279 -0.036506 0.017794 -0.142602 -0.157114 0.248596 -0.235150 -0.581138 -0.102530 -0.047063 0.058736 -0.054584 -0.158714 0.326397 -0.119821 -0.288350 0.631993 -0.000678 0.130726 -0.410072 -0.226858 -0.212284 -0.404416 -0.195333 0.125926 0.073400 0.211444 0.003134 -0.077935 -0.160343 0.160294 0.150634 -0.107967 -0.380550 0.443034 0.515532
if 0.140576 -0.272412 0.105083 0.366556 -0.038227 0.169232 0.078114 0.041726 -0.546178 -0.103607 0.197645 -0.137715 -0.180360 0.061128 0.278186 -0.340547 -0.441175 -0.431909 0.038332 -0.192409 0.741740 0.087866 0.305149 -0.507653 -0.282427 0.096456 0.296727 0.227575 0.265099 -0.061911 0.039702 0.173269 0.152401 0.751603 0.158611 0.012869 -0.290135 -0.218367 0.320312 0.473523
about 0.359261 -0.425083 0.171857 0.281561 -0.031703 -0.162771 0.321781 -0.334077 0.088132 0.270107 -0.080406 -0.295308 -0.028558 0.023055 0.032938 -0.421026 -0.335353 0.000229 -0.076830 -0.444967 0.813033 0.195843 0.189964 -0.414348 -0.606373 0.241147 0.155170 0.157984 -0.114974 -0.050913 0.152761 -0.150858 -0.163723 0.130860 0.251874 0.202858 -0.105802 -0.221998 0.290358 0.624092
then 0.486966 -0.723797 0.189059 0.255471 0.031319 0.111376 0.102502 -0.211281 -0.207022 0.191609 -0.188917 -0.405760 -0.066139 -0.137623 0.304667 -0.449258 -0.249596 -0.135966 -0.074103 -0.346825 0.729704 0.202113 0.059388 -0.317282 -0.385097 0.136620 0.065066 0.004293 0.012181 -0.180156 0.167164 -0.034949 0.057166 0.101106 0.133461 0.128269 -0.137446 -0.250686 0.413438 0.562834
no 0.322962 -0.386676 0.152573 0.230898 0.352254 0.003414 0.284884 -0.110993 -0.262623 0.129595 -0.482418 0.003400 -0.126906 -0.342970 0.438587 -0.310264 -0.355200 -0.427500 0.176354 -0.572635 0.825647 0.004159 0.236015 -0.233597 -0.486638 -0.174165 0.327946 0.052055 -0.061284 -0.286210 0.225108 -0.222764 0.065427 0.382504 0.458556 -0.020918 -0.181625 -0.149804 -0.083487 0.615696
them 0.472441 -0.331499 0.079877 0.259666 0.062763 -0.089708 0.128414 -0.332105 -0.219551 0.340973 -0.228812 -0.287475 -0.070147 0.123179 0.175804 -0.325528 -0.178877 -0.104382 0.076617 -0.465130 0.743188 0.264678 0.220069 -0.343537 -0.302043 -0.168079 0.081143 -0.008964 0.058524 0.017249 0.184203 0.032438 -0.199448 0.348824 0.251318 0.284668 -0.255400 -0.360080 0.209035 0.792181
know 0.168534 -0.258893 0.201008 0.608735 0.118140 0.306322 0.147646 -0.325183 -0.458690 0.077936 0.191018 -0.409815 -0.173168 0.016362 0.599577 -0.509122 -0.211512 -0.318802 -0.137057 0.016471 0.908217 -0.034408 0.241374 -0.237671 -0.382786 0.025551 0.297580 0.093386 0.455821 -0.337678 0.527667 0.139078 0.240823 0.484716 0.160691 -0.113624 -0.111375 -0.071607 -0.125850 0.782876
like 0.157942 -0.349919 0.335487 0.500847 -0.039386 0.084691 0.249466 -0.291810 -0.317538 0.095638 -0.016428 -0.277734 -0.190884 -0.054478 0.304642 -0.448776 -0.372627 -0.283208 0.024924 -0.358792 0.753827 0.061584 0.374539 -0.515113 -0.448515 0.149595 0.160394 0.244300 0.060560 -0.048829 0.248918 -0.074454 -0.038746 0.296051 0.321352 -0.177424 -0.336344 -0.061350 0.089812 0.800116
were 0.520267 -0.470308 0.236667 -0.068092 -0.075333 0.015161 0.226471 -0.268694 -0.065140 0.212154 -0.109532 -0.433031 -0.174115 -0.127231 0.155018 -0.250290 -0.034501 -0.178503 0.187429 -0.574598 0.823252 0.110155 0.248362 -0.064993 -0.292142 -0.113305 -0.035047 0.099998 0.087272 0.052772 0.138062 -0.012045 0.012912 0.033037 0.236817 0.385986 -0.099625 -0.342261 0.132414 0.592404
again 0.350912 -0.377115 0.156007 0.150397 -0.011544 -0.030600 -0.047076 -0.180971 -0.181808 0.149312 -0.191552 -0.270167 -0.093119 -0.103872 0.295473 -0.434713 -0.144527 0.051874 0.029494 -0.454414 0.624923 0.260457 0.228278 -0.379472 -0.782274 0.188120 -0.104173 0.027469 0.071392 -0.075852 0.123046 -0.063147 -0.296889 0.130249 0.410398 0.104631 0.085784 -0.208262 0.302505 0.587863
herself 0.188841 -0.585043 0.253931 0.174898 0.031590 0.092462 0.045278 -0.143416 -0.218451 0.385129 -0.321733 -0.221020 -0.160206 0.119174 0.221759 -0.420184 -0.203960 -0.187016 0.091887 -0.583669 0.743748 0.332695 0.091340 -0.584923 -0.529641 0.088991 0.151498 0.321071 -0.146039 -0.194019 0.005233 -0.336830 -0.265100 0.274158 0.505893 -0.140915 -0.099801 -0.431095 0.528822 0.660543
went 0.464178 -0.282109 0.217394 -0.035302 0.130506 0.086032 -0.122493 -0.027007 -0.143591 0.694398 -0.433967 -0.355152 -0.016261 -0.074964 0.126283 -0.180761 -0.503585 0.042643 0.269928 -0.272931 0.885196 0.138078 0.113095 -0.610330 -0.596190 -0.014536 -0.146053 0.165294 -0.059651 0.317018 0.136137 0.224441 0.016158 -0.078389 0.319454 0.107317 0.015761 -0.619980 0.808222 0.718733
would 0.251262 -0.348700 0.289703 0.513513 -0.108400 0.086787 0.087619 -0.156607 -0.433436 0.002729 -0.171769 -0.138876 -0.194273 -0.055910 0.027166 -0.533823 -0.488917 -0.387848 0.095920 -0.237532 0.573276 0.176052 0.155541 -0.537829 -0.447483 0.167080 0.181696 0.302003 0.107045 0.143209 0.213045 -0.148720 -0.365076 0.186327 0.289313 0.026931 -0.186658 -0.001641 0.351685 0.878785
do 0.166980 -0.301043 0.053668 0.601061 0.010631 0.306744 -0.084236 -0.023814 -0.514203 0.392577 0.123079 -0.376309 -0.327679 -0.021008 0.442818 -0.613115 -0.291424 -0.440516 0.035727 -0.081679 0.835993 0.020930 0.425985 -0.373285 -0.397521 0.137351 0.339242 0.260309 0.414128 -0.293937 0.282443 -0.112754 0.075842 0.469864 0.198465 -0.127893 -0.399314 -0.053448 0.289058 0.830158
have -0.041982 -0.179469 0.066908 0.746957 0.226413 0.186297 0.034553 -0.152364 -0.725367 0.408208 0.230533 -0.253464 -0.231382 0.232512 0.288465 -0.427916 -0.284697 -0.340317 0.029632 -0.100796 0.806537 -0.092386 0.244588 -0.195436 -0.434032 0.170125 0.560013 0.218614 0.095109 -0.131679 0.379155 -0.088554 0.025010 0.339790 0.315120 0.219125 -0.419375 -0.158779 0.472591 0.778698
when 0.424484 -0.552126 0.201974 0.245448 -0.017193 0.163939 0.120962 -0.106234 -0.281893 0.196440 -0.329717 -0.230815 -0.068550 0.053114 0.079583 -0.517724 -0.106474 -0.049177 0.057801 -0.424440 0.667070 -0.015675 0.032152 -0.404241 -0.516383 -0.062269 0.109159 0.108547 0.050521 -0.058104 -0.061313 -0.085465 -0.202378 0.214316 0.304629 0.208497 -0.105878 -0.220381 0.272744 0.712383
could 0.220258 -0.031819 0.422123 0.503918 -0.110951 0.067065 0.079411 -0.146932 -0.500489 0.099564 -0.035575 0.019833 -0.491907 -0.125757 0.154108 -0.520743 -0.376026 -0.473594 -0.115930 -0.279051 1.019510 -0.017438 0.444815 -0.445203 -0.638790 0.196976 0.498246 0.261618 0.042272 -0.255586 -0.086115 0.056176 -0.033101 0.312628 0.708142 0.087049 -0.264975 -0.207214 0.391157 0.815102
or 0.224085 -0.318950 0.320170 0.337801 0.079969 0.167982 0.176915 -0.594455 0.079541 0.103799 -0.160270 -0.487830 0.195673 0.105524 -0.070239 -0.349381 -0.160648 -0.065789 0.025121 -0.398102 0.718479 0.126697 0.513873 -0.160975 -0.390543 -0.087674 0.240043 0.320847 0.091048 -0.069167 0.481520 -0.127323 0.167869 0.174723 0.235608 0.347835 -0.364255 -0.052298 -0.023970 0.824256
queen 0.479826 -0.798616 0.198880 -0.118211 0.201976 0.033920 0.024376 -0.182524 -0.140607 0.317864 -0.348443 -0.552964 -0.257574 -0.240222 0.214225 -0.139319 -0.343570 -0.067121 0.211030 -0.518333 0.660893 -0.238521 -0.093042 -0.544260 -0.309574 0.168112 -0.241328 0.054756 0.153324 -0.023421 0.139268 -0.206338 0.028975 0.119544 0.362491 0.127405 -0.251900 -0.112663 0.462637 0.509196
thought 0.387923 -0.479918 0.215790 0.350566 0.346832 0.009282 -0.118082 -0.241465 -0.047070 0.386956 -0.195236 -0.228602 -0.354766 0.005054 0.222508 -0.464033 -0.233808 -0.156703 0.155103 -0.423001 0.808961 -0.056726 0.208540 -0.321228 -0.621558 -0.163225 0.290077 -0.023080 -0.049055 -0.309129 0.110972 0.071234 -0.070293 0.006933 0.648754 0.095640 -0.100461 -0.323909 0.428794 0.429489
off 0.431063 -0.292326 0.108085 0.004192 -0.165394 -0.201402 -0.072559 -0.263896 -0.151475 0.248945 -0.160751 -0.502906 -0.241753 0.009252 -0.071960 -0.170560 -0.129596 0.103759 0.136417 -0.466125 0.726503 -0.000812 0.037007 -0.336677 -0.292866 -0.041636 -0.200959 -0.036920 0.073486 0.051058 0.164642 -0.127125 -0.172187 -0.161383 0.246461 0.386228 -0.202841 -0.366221 0.526736 0.367965
time 0.381444 -0.568020 0.158320 0.244549 0.123201 0.034938 0.067222 -0.349912 -0.121109 0.486951 -0.219276 -0.466076 -0.148125 -0.096461 0.197448 -0.243853 -0.052566 -0.203161 0.079947 -0.505466 0.849714 0.244154 0.045710 -0.511491 -0.456345 0.007620 0.262410 0.237879 -0.065973 -0.145775 0.127256 -0.258652 -0.117145 0.176247 0.404830 -0.088779 -0.124258 -0.484359 0.123306 0.587595
how 0.204271 -0.404255 0.181447 0.355623 0.063095 0.059387 0.202967 -0.045674 -0.335986 0.059962 0.024295 -0.233072 -0.169973 0.039726 0.363431 -0.578417 -0.202613 -0.150862 0.025069 -0.146966 0.908166 0.096741 0.234966 -0.400128 -0.558901 0.181090 0.128620 0.168701 0.136354 -0.237956 0.228195 -0.102949 0.143684 0.210914 0.397474 -0.029506 -0.319889 -0.069390 0.358121 0.659340
me 0.243078 -0.239707 0.040327 0.462244 0.112209 0.078551 0.116653 -0.405037 -0.579267 0.319860 -0.009553 -0.302310 -0.143015 -0.092578 0.240080 -0.452690 -0.313691 -0.471746 0.115107 -0.219325 0.721051 0.165781 0.307605 -0.380905 -0.165234 0.041848 0.265485 0.129939 0.279249 -0.467197 0.504300 -0.207317 0.084588 0.244256 0.237579 -0.081897 -0.410538 -0.114578 0.190573 0.677677
into 0.381207 -0.567693 0.290331 -0.240914 0.278849 -0.209222 0.011666 -0.407903 -0.210865 0.354403 -0.251002 -0.422008 -0.094858 -0.164593 -0.035260 -0.390117 -0.218564 0.080346 -0.023827 -0.430409 0.638868 0.201787 0.117401 -0.452440 -0.384680 -0.064271 -0.098424 -0.030713 -0.019946 0.062086 0.144301 -0.163150 -0.382843 -0.217018 0.401739 0.412248 -0.092795 -0.362755 0.387871 0.612149
see 0.182690 -0.226225 0.170370 0.556448 0.021832 0.005102 0.112107 -0.202081 -0.455259 0.455674 0.049616 -0.140378 -0.189615 -0.116881 0.412555 -0.586583 -0.303377 -0.290227 -0.045575 -0.211916 1.063860 0.161085 0.247906 -0.356338 -0.463168 0.142794 0.481803 0.253535 0.261922 -0.248045 0.324591 -0.053721 0.049404 0.449442 0.455239 0.028183 -0.221300 -0.367231 0.174019 0.638789
who 0.171888 -0.491921 0.243151 -0.028261 0.075844 -0.053738 0.064230 -0.271739 -0.398358 0.327644 -0.106711 -0.363432 -0.234349 -0.249364 0.213800 -0.158805 -0.289180 -0.024341 0.104733 -0.263815 0.601002 -0.227760 0.081781 -0.326315 -0.256769 -0.058880 -0.144435 -0.050898 0.179017 0.082948 0.076095 0.022627 0.058847 0.100934 0.333540 -0.009442 -0.161289 -0.000849 0.281384 0.641594
can 0.147648 -0.278515 0.116462 0.765561 -0.129510 0.199542 0.189763 -0.369579 -0.491701 0.152991 -0.086298 -0.132354 -0.027031 -0.214668 0.303148 -0.464004 -0.288240 -0.301367 -0.041400 -0.097483 0.689940 0.008478 0.273776 -0.370630 -0.393963 -0.009706 0.426794 0.032222 0.437969 -0.382598 0.316162 0.059689 0.277862 0.388829 0.485814 -0.010538 -0.188871 -0.098499 0.026443 0.867965
did 0.261687 -0.673561 0.348093 0.389522 0.039805 0.030869 0.043407 -0.204425 -0.174882 0.106349 0.033835 -0.444657 -0.255621 -0.273913 0.272935 -0.720975 -0.533939 -0.212999 -0.050777 -0.394853 0.989680 0.020305 0.298777 -0.321816 -0.702053 0.259970 0.301241 0.089471 -0.081075 -0.144885 0.018042 -0.157854 0.271915 0.367134 0.637966 -0.273490 -0.115368 0.004786 0.432724 0.564299
king 0.424453 -0.856865 0.261958 -0.198521 0.181615 -0.047559 0.025862 -0.164865 -0.113345 0.356112 -0.209047 -0.642173 -0.242286 -0.335361 0.261101 -0.437622 -0.347844 -0.015884 0.132722 -0.539317 0.896288 -0.125561 -0.013318 -0.640132 -0.319680 0.199393 -0.185632 -0.071636 0.152899 -0.147929 0.067672 -0.064984 0.064916 0.201685 0.186640 0.023343 -0.179160 -0.197263 0.585622 0.631046
m 0.125670 -0.576014 0.160060 0.315850 0.136712 0.391435 0.173646 -0.409640 -0.224798 0.182321 -0.047926 -0.335122 -0.279675 0.171531 0.266184 -0.516810 -0.196411 -0.363407 -0.012087 -0.245736 0.885533 -0.067544 0.237721 -0.169836 -0.527370 -0.130922 0.404442 0.384119 0.103088 -0.157576 0.206365 -0.117751 0.204008 0.416775 0.223857 0.031465 -0.564268 -0.298864 0.462328 0.805161
well 0.238303 -0.397406 0.353139 0.319577 0.122611 0.137460 -0.094305 -0.299085 -0.226567 0.251628 -0.253606 0.017538 -0.503535 -0.111126 0.082898 -0.393572 -0.329061 -0.417224 0.115551 -0.289483 0.615394 -0.048226 0.164235 -0.580995 -0.311910 -0.043868 0.048364 0.263380 0.147404 -0.090711 0.156871 -0.062444 -0.109913 0.445918 0.420838 0.157798 -0.280317 -0.129335 0.408075 0.679580
your 0.236122 -0.458467 -0.025245 0.081201 0.030877 0.126374 0.186061 0.036706 -0.109916 0.386450 0.072069 -0.514612 -0.052909 -0.278273 0.270226 -0.091364 -0.486583 0.151078 -0.069985 -0.189024 0.671562 -0.155649 0.169227 -0.200661 -0.355491 0.161910 0.055656 0.083454 0.385023 -0.325335 0.188528 0.062147 0.126392 0.002270 0.172348 0.038487 -0.029906 0.041646 0.273198 0.371544
don 0.021827 -0.229259 0.034894 0.860346 -0.187904 0.323365 -0.021901 -0.425362 -0.588213 0.323394 0.193763 -0.359450 -0.175937 0.001426 0.391114 -0.359358 -0.391398 -0.088684 -0.043491 -0.040152 1.168082 -0.169800 0.124256 -0.262048 -0.359042 -0.077867 0.507465 0.161153 0.679216 -0.367568 0.495504 0.110228 0.374547 0.384719 0.475764 -0.384436 -0.323179 -0.090887 0.106776 0.937604
now 0.266874 -0.469266 0.360482 0.527896 0.116876 0.250746 0.097926 -0.344143 -0.257522 0.431434 0.002559 -0.371128 -0.253423 0.163740 0.129536 -0.345799 -0.324827 0.037816 -0.067337 -0.294156 0.767942 0.132882 0.221601 -0.298851 -0.552388 0.046608 0.077349 0.001017 -0.034484 -0.479495 0.158999 -0.085873 0.059959 0.343403 0.534746 -0.062431 -0.242287 -0.196709 0.239050 0.652913
turtle 0.673673 -0.704326 0.450333 -0.398451 -0.109612 0.522518 -0.118310 -0.260196 0.020015 0.414290 -0.195437 -0.272736 0.058917 -0.548392 0.383520 -0.069392 -0.539728 0.046299 0.175165 -0.569395 1.036113 -0.406261 0.073945 -0.792734 -0.657306 -0.247529 -0.226957 0.145533 0.536795 0.452883 0.043963 0.096665 -0.000122 -0.303519 0.312497 0.269017 -0.382507 0.050636 0.316925 0.329266
by 0.444158 -0.523381 0.179586 -0.055580 0.080716 -0.122831 0.090816 -0.205255 -0.147056 0.246727 -0.369520 -0.374170 -0.336598 -0.074517 0.093510 -0.190244 -0.219548 0.013310 0.088744 -0.541131 0.661914 0.085362 0.000490 -0.359569 -0.377853 -0.062729 -0.205261 -0.035827 0.179343 -0.050659 0.191167 -0.142554 -0.120470 0.024774 0.348386 0.334199 -0.091796 -0.079264 0.258544 0.488284
began 0.487006 -0.406829 0.283372 0.244136 0.212531 0.082086 0.083409 -0.345317 -0.033394 0.240793 -0.180230 -0.204580 -0.071173 -0.138090 0.027257 -0.243571 -0.265241 0.115097 0.103382 -0.410624 0.725378 0.206030 0.220471 -0.498614 -0.569648 -0.015758 -0.045030 0.120315 0.045132 -0.058835 0.213983 -0.091696 -0.052220 -0.057376 0.448447 0.118195 0.070705 -0.201526 0.456244 0.662285
my 0.231076 -0.546094 -0.088736 0.277852 -0.013629 -0.028792 -0.003694 -0.165172 -0.193853 0.127013 -0.196090 -0.257635 -0.110383 0.045988 -0.036545 -0.101808 -0.279120 -0.233530 -0.026215 -0.211422 0.582955 -0.011076 0.201651 -0.315505 -0.324069 0.088603 0.142263 0.044306 0.143530 -0.271300 0.333806 -0.046069 0.065850 0.158078 0.255332 -0.096970 -0.310656 -0.232996 0.256106 0.567342
an 0.533206 -0.447808 0.129169 -0.079748 0.043343 0.042446 0.058152 -0.447221 0.052576 0.360999 -0.355080 -0.427239 -0.118744 -0.032805 0.077568 -0.259198 -0.326995 0.042050 -0.119868 -0.360723 0.536394 0.110504 0.010538 -0.455360 -0.281783 0.059647 -0.081303 0.210619 0.043458 -0.167906 0.175009 -0.037827 0.107565 0.175107 0.152192 -0.041776 -0.143833 -0.156010 0.471066 0.522084
its 0.479082 -0.397987 -0.023453 -0.114285 -0.116710 -0.043693 0.105286 -0.491330 -0.012343 0.307398 -0.273496 -0.672099 -0.149606 0.054345 0.117744 -0.016961 -0.216460 0.112874 -0.099877 -0.528991 0.667728 0.133798 0.100606 -0.240953 -0.399677 -0.301394 -0.308429 -0.010111 0.075108 -0.048166 0.257919 -0.086160 -0.291876 -0.218441 -0.007389 0.180046 0.007377 -0.245105 0.349213 0.630498
ll 0.190703 -0.303111 0.157959 0.696304 0.119376 0.313639 0.216637 -0.144397 -0.450270 0.105780 -0.004960 -0.238832 0.015907 -0.165578 0.166449 -0.694225 -0.256492 -0.254916 0.009659 -0.254377 0.774243 0.073410 0.219764 -0.128499 -0.363893 0.104719 0.355347 0.271330 0.302724 -0.263034 0.326513 -0.258500 -0.198705 0.278048 0.465111 0.147689 -0.289958 0.088372 0.205991 0.648061
mock 0.301649 -0.881188 0.126424 -0.239404 0.356545 -0.582139 0.255024 0.005459 -0.292014 0.795854 -0.427866 -0.457497 -0.511677 -0.219946 0.084473 0.091665 -0.782562 -0.033862 -0.022211 -0.400999 0.478646 -0.245171 0.150180 -1.107127 -0.248142 -0.130730 -0.114845 0.182381 0.368395 -0.067001 0.183388 -0.349710 0.566195 0.137694 0.254193 0.069115 -0.588116 0.144539 0.685091 0.749902
way 0.230768 -0.515536 0.189614 0.071263 0.279954 0.058365 0.031887 -0.560316 -0.191051 0.286517 -0.413629 -0.377973 -0.239670 0.115206 0.171414 -0.462602 -0.118774 -0.081044 -0.037453 -0.477147 0.736716 0.109487 0.201490 -0.381367 -0.439679 0.069667 -0.031683 0.173938 0.087477 0.094296 0.245427 -0.093534 -0.172242 -0.058566 0.257363 0.142005 -0.132633 -0.219975 0.238152 0.609857
hatter 0.469990 -0.705916 0.091947 0.089164 0.129842 0.066066 0.082265 -0.293315 -0.277737 0.280245 -0.069651 -0.448802 -0.268361 -0.177387 0.343709 -0.488405 -0.447862 -0.116662 0.080659 -0.492435 0.955735 0.005289 0.134814 -0.458827 -0.390673 0.009461 0.014231 0.024588 0.344167 -0.304030 0.241739 -0.158396 0.057486 0.159667 0.257668 -0.000301 -0.212629 -0.201959 0.458440 0.704119
gryphon 0.413280 -0.707484 0.158211 -0.062564 0.148948 0.010033 -0.069423 -0.000061 -0.084441 0.396946 -0.084357 -0.565728 -0.338778 -0.141674 0.304886 -0.400828 -0.455483 -0.103180 0.174304 -0.427908 0.706130 -0.019261 0.113348 -0.623677 -0.403162 0.112729 -0.104597 0.182974 0.075458 -0.008978 0.071359 -0.005854 -0.000590 0.181687 0.166953 0.063853 -0.157232 -0.087028 0.376373 0.672324
quite 0.140690 -0.465673 0.329734 0.269487 0.025909 0.058261 0.171531 -0.274627 -0.294763 0.043626 -0.163769 -0.358210 -0.084364 -0.069905 0.261982 -0.403977 -0.284139 -0.031666 0.021525 -0.361973 0.688256 -0.112564 0.175858 -0.402716 -0.341849 -0.007273 0.231833 0.074384 -0.012477 -0.124598 0.058910 -0.180368 -0.137388 0.157619 0.446476 0.016557 -0.072093 -0.188819 0.373692 0.534350
are 0.442588 -0.344703 0.105357 0.204861 -0.040284 0.065771 0.125300 -0.304291 -0.194422 0.299155 0.017298 -0.503032 -0.151744 -0.163963 0.371038 -0.340678 -0.292521 -0.251416 -0.095274 -0.232972 0.933612 -0.125934 0.181824 -0.225599 -0.252575 -0.003004 -0.041957 0.267406 0.063414 0.005113 0.248666 -0.241663 0.140187 0.247055 0.102112 0.024736 -0.141295 -0.241213 0.072338 0.656951
rabbit 0.461598 -0.609006 -0.012957 -0.355654 0.146050 0.215237 -0.076254 -0.497177 -0.130201 0.408739 -0.238126 -0.461226 -0.229090 -0.115130 0.248309 -0.157192 -0.113477 0.017338 -0.111559 -0.388800 0.717274 -0.218998 -0.052722 -0.445562 -0.520817 -0.023171 -0.345648 -0.088567 0.269293 -0.147909 0.050422 -0.284705 0.246000 -0.010280 0.110962 0.306713 0.172089 -0.453120 0.434753 0.659646
think 0.226749 -0.333954 0.240227 0.778384 0.162159 0.298025 0.077559 -0.191545 -0.474682 0.112773 0.112697 -0.144312 -0.218469 0.074737 0.533229 -0.629756 -0.334125 -0.269896 -0.138303 -0.158048 1.067694 0.107531 0.394683 -0.413877 -0.337107 0.181497 0.498302 0.156811 0.330590 -0.197989 0.408355 -0.158308 0.023261 0.594934 0.440705 -0.059001 -0.360684 -0.078871 0.304925 0.861081
just 0.426663 -0.584517 0.274231 0.251566 0.083837 0.088130 0.036618 -0.094863 -0.206097 0.271371 -0.122059 -0.169037 -0.385763 0.007524 0.138190 -0.382334 -0.301119 -0.232188 0.138680 -0.342620 0.660457 0.129149 0.224608 -0.527600 -0.448095 -0.052794 0.114911 0.060435 -0.010111 -0.143611 0.031549 -0.158935 -0.051714 0.434422 0.306593 0.112436 -0.318783 -0.282546 0.394438 0.658895
their 0.532021 -0.324350 0.349937 -0.037734 -0.137666 -0.091738 0.313939 -0.205256 0.136794 0.269734 -0.338825 -0.551360 0.033856 -0.055282 0.210485 -0.377833 -0.238562 0.037326 0.052278 -0.351630 0.734306 0.246263 0.192607 -0.126206 -0.196754 -0.128763 -0.276789 0.163778 0.110053 -0.041187 0.178835 -0.000259 -0.312714 -0.164977 0.084830 0.255248 -0.033271 -0.342109 0.289219 0.584231
first 0.316267 -0.666168 0.099999 -0.110037 -0.001141 -0.030358 0.069431 -0.228373 -0.109934 0.284457 -0.243826 -0.411762 -0.279435 -0.073781 0.191709 -0.353078 -0.271544 -0.121519 0.059350 -0.453393 0.647891 -0.205155 0.049191 -0.471985 -0.360640 0.004609 -0.004029 0.069033 0.038656 0.025217 0.119777 0.040684 -0.171054 0.193474 0.270330 0.167790 -0.165273 -0.154827 0.371053 0.585851
here 0.200609 -0.446401 0.270175 0.149918 0.198897 0.032919 0.219822 -0.186323 -0.184450 0.401228 -0.117408 -0.494555 -0.118582 -0.256113 0.229997 -0.188870 -0.384824 -0.039593 0.039466 -0.514882 0.597285 0.068521 0.157253 -0.316827 -0.411494 -0.041530 -0.064158 0.050635 0.249049 -0.142008 0.205317 0.065290 0.060701 0.114887 0.374178 0.039498 -0.276158 -0.190384 0.412757 0.616905
much 0.167147 -0.407627 0.233053 0.372343 0.201536 0.019915 -0.054791 -0.101449 -0.281333 0.268217 -0.064718 -0.134631 -0.257746 0.012749 0.132078 -0.250048 -0.556215 -0.142972 0.052361 -0.465719 0.906878 0.071702 0.178583 -0.375893 -0.386994 0.047114 0.089823 0.136687 -0.089830 -0.119299 0.282520 -0.042131 0.095585 0.266097 0.474299 0.041489 -0.190414 -0.180747 0.342131 0.487989
say 0.124065 -0.503583 0.242213 0.346610 0.180012 0.108464 0.077687 -0.174280 -0.403884 0.282626 -0.006925 -0.169818 -0.401388 -0.181506 0.355476 -0.529584 -0.357068 -0.165806 0.113125 -0.178754 0.845512 0.085891 0.226690 -0.319697 -0.459607 0.023692 0.063940 0.270776 0.159889 -0.102382 0.081179 -0.156908 -0.064527 0.380796 0.398776 -0.029809 -0.354102 -0.120135 0.197655 0.676402
some 0.326017 -0.419243 0.106868 0.182648 0.011663 -0.048026 -0.010929 -0.247776 -0.171773 0.365853 -0.416288 -0.264909 -0.174946 -0.013893 0.018788 -0.270720 -0.224526 -0.181665 0.139630 -0.325891 0.738200 -0.077750 0.116291 -0.439236 -0.221266 -0.125637 -0.176046 -0.045856 0.078349 -0.178651 0.256449 -0.191613 -0.001368 0.253784 0.311135 -0.025517 0.039553 -0.253026 0.255428 0.490305
go 0.244237 -0.375984 0.183869 0.289163 0.080236 0.024234 -0.024316 -0.185415 -0.279038 0.353349 -0.029231 -0.413529 -0.282249 0.074337 0.283655 -0.443188 -0.186765 -0.168813 0.146552 -0.226966 0.803917 0.124108 0.157423 -0.362200 -0.434114 -0.062845 -0.063208 0.109362 0.181828 -0.163707 0.323550 -0.059304 -0.149344 0.340962 0.225062 0.106759 -0.112446 -0.265628 0.582261 0.663253
head 0.539026 -0.690221 0.467701 0.109515 0.093797 0.099062 0.101957 -0.155810 -0.032995 0.168985 -0.231028 -0.441534 -0.203566 0.121192 0.138470 -0.403111 -0.265943 -0.057219 -0.158995 -0.515005 0.848286 0.026564 0.205111 -0.333932 -0.449555 -0.098606 -0.090773 0.059601 -0.012473 -0.085654 0.059536 -0.175502 -0.220071 -0.115941 0.245382 0.445912 -0.155123 -0.324788 0.392651 0.649926
only 0.281335 -0.481240 0.093452 0.275592 0.115617 0.108240 0.021013 -0.279176 -0.188372 0.210151 -0.244909 -0.346282 -0.164872 0.010917 0.148552 -0.198438 -0.236666 -0.002253 0.056215 -0.403005 0.831258 -0.081929 0.150220 -0.498193 -0.330902 0.086464 0.048736 0.007782 -0.022734 -0.141088 0.225430 -0.035633 -0.014702 0.132551 0.307059 -0.005511 -0.124525 -0.282527 0.385542 0.561105
more 0.164077 -0.359862 0.063678 0.300662 0.295056 0.117998 0.224195 -0.280251 -0.192306 0.239044 -0.330925 -0.345394 -0.168465 0.154761 0.272583 -0.396171 -0.124023 -0.095456 0.110149 -0.254861 0.604102 -0.133680 0.135795 -0.402236 -0.333889 -0.013364 0.352220 0.135895 0.026841 -0.139151 0.361355 -0.089329 -0.075877 0.089160 0.287050 0.103647 -0.273132 -0.207805 -0.028257 0.509630
thing 0.360841 -0.620814 0.105693 0.023695 0.198626 0.133666 0.155610 -0.289377 -0.019930 0.456341 -0.309748 -0.329638 -0.318612 -0.118752 0.007781 -0.159267 -0.437409 0.095903 0.090583 -0.357571 0.840690 0.142907 -0.031694 -0.509732 -0.375611 0.065319 0.047463 0.259497 -0.005340 -0.161723 0.236084 -0.250971 -0.018486 -0.051173 0.412198 0.013857 -0.278159 -0.204051 0.314762 0.456554
which 0.341382 -0.367096 0.136056 0.164674 0.144350 0.063676 0.190805 -0.371260 -0.130221 0.284884 -0.379268 -0.357081 -0.074472 0.025104 0.058913 -0.273488 -0.276164 -0.049744 -0.008157 -0.446706 0.674991 -0.042436 0.063753 -0.259419 -0.319156 0.046644 -0.063344 0.202684 0.053469 0.069828 0.192126 -0.169951 -0.146681 0.073708 0.421756 0.088971 0.049607 -0.304848 0.291556 0.519856
never 0.447916 -0.431540 0.139191 0.291633 -0.089689 0.068925 -0.051669 -0.105030 -0.306945 0.356359 -0.029774 -0.138374 -0.195307 0.091428 0.367391 -0.356530 -0.171613 -0.150644 0.205289 -0.514624 0.797468 0.087900 0.029325 -0.437733 -0.564962 0.086732 0.501436 0.259845 -0.054232 -0.227702 0.256488 -0.021287 -0.133077 0.481839 0.379245 0.002392 -0.240933 -0.119867 0.259786 0.745545
voice 0.357618 -0.511752 0.245042 0.037567 0.264382 0.094966 0.190429 -0.385450 -0.057957 0.303602 -0.149911 -0.322337 -0.174970 -0.009489 -0.003156 -0.383058 -0.437594 0.076456 0.052759 -0.478433 0.692019 0.150651 0.072350 -0.391856 -0.346747 0.053505 -0.152063 0.353851 0.004449 0.053549 0.115137 -0.057932 0.129265 -0.040236 0.202120 0.170738 -0.177831 -0.046370 0.220270 0.413049
come 0.211362 -0.512503 0.155578 0.161687 0.194609 0.011912 0.066338 -0.143099 -0.424928 0.126608 -0.094603 -0.518581 -0.156695 -0.111442 0.206771 -0.452175 -0.294318 -0.138735 0.149823 -0.320676 0.701850 0.139271 0.235794 -0.323117 -0.343804 -0.000187 -0.005795 0.118324 0.120889 -0.146063 0.182089 -0.096247 -0.036536 0.125002 0.193994 0.118852 -0.172779 -0.245499 0.320663 0.578429
get 0.379895 -0.212848 0.181888 0.285299 0.194134 0.082777 0.055044 -0.239863 -0.363074 0.321733 -0.240494 -0.236413 -0.292412 -0.041744 0.351893 -0.344228 -0.228700 -0.120860 0.152422 -0.423972 0.742703 -0.065635 0.348398 -0.266573 -0.508772 0.038248 0.126243 0.018717 0.231533 -0.139687 0.196826 -0.113677 -0.059161 0.298569 0.247689 0.066615 -0.230545 -0.336633 0.300655 0.714832
got 0.299906 -0.497885 0.306266 0.331982 0.034862 0.013335 -0.081707 -0.298472 -0.367809 0.185320 -0.150986 -0.451749 -0.203697 0.050127 0.186612 -0.360148 -0.107198 -0.222290 0.025944 -0.532869 0.935437 0.296011 0.212137 -0.410174 -0.579455 -0.089712 0.053257 0.079497 0.158523 -0.258575 0.184907 -0.101725 -0.164502 0.241223 0.481168 0.026898 -0.178615 -0.244109 0.319595 0.649602
looked 0.443016 -0.647373 0.156951 0.194636 0.004006 -0.031548 0.110174 -0.278756 -0.000612 0.420518 -0.183965 -0.672208 -0.132736 0.071953 0.200966 -0.431697 -0.131569 0.049865 0.144859 -0.558123 0.826228 0.166765 0.158168 -0.418984 -0.325546 -0.093986 -0.073678 -0.022291 0.044949 -0.259177 0.078468 0.051994 0.005590 0.008459 0.424692 0.206308 0.048762 -0.282436 0.395353 0.473395
oh 0.282915 -0.485216 0.004173 0.227696 0.068530 0.154753 0.097711 -0.168256 -0.408766 0.247091 -0.056401 -0.208252 -0.157827 -0.028333 0.137329 -0.328235 -0.216420 -0.186335 -0.038753 -0.238291 0.890740 0.094055 0.152942 -0.257890 -0.317689 0.092575 0.308377 0.162420 0.118091 -0.201731 0.160601 -0.029290 0.201513 0.341568 0.216631 -0.132217 -0.316623 -0.063067 0.273913 0.504722
mouse 0.239163 -0.653992 0.134318 0.012597 0.233652 0.079449 0.121894 -0.322048 -0.250838 0.550478 -0.102574 -0.580410 -0.270324 -0.181286 0.261224 -0.444258 -0.363835 0.019456 0.161667 -0.520925 0.825930 -0.035138 0.288500 -0.515930 -0.456584 -0.063587 -0.034455 0.199737 -0.048902 0.018284 0.154982 -0.157340 -0.027063 0.139453 0.378872 -0.062249 -0.055382 -0.202156 0.338654 0.700815
must 0.195871 -0.374198 0.239438 0.449590 -0.045851 0.204405 0.017034 -0.330631 -0.442370 0.074437 -0.077293 -0.326870 -0.199511 0.042769 0.087146 -0.443212 -0.344088 -0.394091 0.010616 -0.405889 0.729134 0.125851 0.291908 -0.373737 -0.416484 0.081290 0.164848 0.191513 0.138772 -0.344943 0.395454 -0.006154 -0.054384 0.279035 0.438026 -0.045421 -0.209574 -0.022806 0.118234 0.884216
ve 0.168900 -0.352278 0.055536 0.498208 0.082467 0.066050 -0.008305 -0.121321 -0.250579 0.303415 0.042062 -0.139539 -0.171413 0.128233 0.128986 -0.504414 -0.096594 -0.308305 0.066753 -0.289206 0.620387 0.015259 0.219091 -0.166407 -0.482148 0.024920 0.357864 0.308705 0.040465 -0.189229 0.282924 -0.049217 -0.018269 0.244820 0.346774 0.034473 -0.271090 -0.237356 0.267671 0.516819
after 0.424316 -0.685718 0.108911 0.032132 0.098170 0.070033 0.144453 -0.311569 -0.119757 0.297709 -0.252495 -0.331357 -0.266463 -0.032941 0.049479 -0.311021 -0.233270 -0.137771 0.068997 -0.513698 0.663932 0.166363 0.155942 -0.427706 -0.329032 0.073786 -0.117095 -0.034947 -0.006799 -0.137041 0.260100 -0.046769 -0.056743 0.070144 0.328500 0.071471 -0.107241 -0.138054 0.329978 0.540069
him 0.522608 -0.477972 0.085838 0.273918 -0.051732 0.088117 0.070918 -0.133438 -0.348250 0.247246 -0.183544 -0.412147 -0.277843 0.068104 0.249178 -0.389034 -0.375849 -0.024338 -0.130016 -0.351400 0.805490 0.034307 0.193340 -0.303685 -0.360187 -0.029368 0.139261 0.117083 0.112691 0.043966 0.197131 -0.048645 0.007072 0.371427 0.257992 0.019540 -0.042812 -0.326737 0.364880 0.594415
duchess 0.493801 -0.754446 0.157402 -0.007812 0.073288 0.020431 0.143309 -0.174834 -0.296286 0.300242 -0.304083 -0.526949 -0.293228 -0.153259 0.165636 -0.212698 -0.515672 -0.118917 0.114794 -0.449945 0.808973 0.047999 0.015287 -0.476658 -0.318708 0.134073 -0.002838 0.108701 0.147406 0.025003 0.196836 -0.290982 -0.037641 0.237279 0.207840 0.090382 -0.191596 -0.085001 0.515178 0.622942
round 0.420143 -0.493168 0.111831 0.138231 -0.039413 -0.122072 0.020247 -0.228400 -0.207752 0.285047 -0.210451 -0.616459 -0.031417 0.020425 0.124695 -0.291695 -0.148994 -0.068553 0.066936 -0.362036 0.585813 0.059439 0.245597 -0.572202 -0.384855 -0.173325 -0.047883 0.062473 -0.011629 -0.149310 0.181268 -0.080973 -0.184087 -0.098155 0.338529 0.309849 -0.138012 -0.374063 0.371043 0.498209
such 0.445488 -0.602305 0.158041 0.230453 0.092038 0.113997 0.123817 -0.467887 -0.150893 0.402250 -0.259323 -0.139724 -0.192823 -0.060133 0.007776 -0.207641 -0.398426 -0.092117 -0.041686 -0.332202 0.618132 0.100493 0.191284 -0.198304 -0.335201 0.098075 -0.050662 0.311813 -0.167227 -0.117137 0.234287 -0.256270 0.000897 0.067756 0.259816 -0.061429 -0.049598 -0.121679 0.195561 0.616219
came 0.315752 -0.491345 0.196420 -0.107395 0.092350 0.010037 0.051308 -0.208273 -0.038870 0.388355 -0.428607 -0.389882 -0.190479 -0.035888 0.145091 -0.105739 -0.343627 0.133706 0.104347 -0.554324 0.619459 0.230957 0.027697 -0.443994 -0.311558 -0.071960 -0.194550 0.048866 -0.064921 0.046997 -0.007706 -0.171710 -0.011730 -0.055789 0.167467 0.058975 -0.023078 -0.350717 0.386916 0.507638
dormouse 0.528876 -0.502774 0.243814 0.159668 0.123038 0.079826 0.103087 -0.299776 -0.157919 0.192366 -0.215071 -0.332027 -0.271150 -0.214295 0.167645 -0.225470 -0.351804 -0.059358 -0.060765 -0.488026 0.645405 0.210024 0.206424 -0.567406 -0.330719 0.043658 -0.141460 0.056856 0.114854 -0.005945 0.151126 0.010624 -0.120581 0.097392 0.344376 0.188972 -0.159056 -0.194872 0.508512 0.560792
other 0.540247 -0.545187 0.063669 -0.222675 0.205054 0.079767 0.229423 -0.307980 -0.058906 0.491321 -0.422375 -0.451524 -0.235340 0.104443 0.193720 -0.142161 -0.313069 -0.055100 0.079440 -0.466223 0.769507 0.033095 0.067258 -0.515562 -0.319425 0.012910 -0.097740 0.055357 0.142623 0.045012 0.167240 -0.156478 0.028914 0.031015 0.141043 0.202048 -0.174148 -0.197997 0.292791 0.593484
over 0.480641 -0.526878 0.319254 0.123889 -0.065898 -0.012821 0.171905 -0.148153 -0.090938 0.321366 -0.219873 -0.601223 -0.209813 -0.130943 0.205546 -0.449275 -0.255082 0.044380 0.155924 -0.442565 0.765670 0.214728 0.214594 -0.493614 -0.387437 0.123853 -0.224452 0.010541 -0.006674 -0.075040 0.208294 -0.053935 -0.259447 0.005124 0.255984 0.238095 -0.105993 -0.347432 0.427834 0.585589
tone 0.398948 -0.507088 0.061566 0.199551 0.062564 0.218248 0.157884 -0.395821 0.009452 0.437658 -0.131306 -0.345256 -0.184175 0.095247 0.089554 -0.412068 -0.376029 -0.054796 -0.197209 -0.440615 0.743519 0.200782 0.290396 -0.284700 -0.441659 -0.135017 -0.094479 0.295061 -0.113455 -0.148333 0.275394 0.023708 0.139785 0.095314 0.271837 0.093023 0.024675 -0.184218 0.226599 0.647644
two 0.332474 -0.272348 0.033387 0.199226 0.170234 -0.002505 0.140661 -0.424369 0.125333 0.199315 -0.324238 -0.512341 0.077744 -0.035758 0.073644 -0.151189 -0.399361 -0.114880 0.072555 -0.644636 0.710847 0.087196 0.240402 -0.372606 -0.292506 -0.026481 -0.017768 0.202275 0.076344 0.098875 0.107460 -0.282007 0.088443 0.070397 0.301289 0.119524 -0.091090 -0.303449 0.388881 0.490804
why 0.275254 -0.504672 0.235917 0.333358 0.124853 0.103517 0.207377 -0.276160 -0.320386 0.181640 -0.058998 -0.369362 -0.182232 -0.129899 0.241327 -0.508380 -0.377519 -0.170543 -0.039715 -0.309866 0.801418 -0.021964 0.227265 -0.217166 -0.361606 0.078130 -0.008152 0.234850 0.180423 -0.030015 0.271923 -0.081520 0.160635 0.373839 0.217835 -0.102425 -0.224148 -0.029790 0.315332 0.506738
any 0.221046 -0.403964 0.185260 0.464345 0.144420 -0.038253 0.193758 -0.247542 -0.103413 0.124917 -0.299192 -0.330383 -0.258872 0.069311 0.275565 -0.201979 -0.307413 -0.258130 0.037116 -0.334950 0.718865 0.044635 0.178649 -0.217413 -0.463120 -0.111240 0.129126 0.052354 0.143144 -0.280735 0.384317 -0.028424 -0.077419 0.191712 0.257499 -0.005224 -0.117522 -0.158971 0.218464 0.713482
back 0.404313 -0.513107 0.329613 0.105801 0.007001 0.089005 0.045410 -0.156118 -0.160647 0.324166 -0.206904 -0.543085 -0.229053 -0.025260 0.201146 -0.367551 -0.069615 -0.119563 0.171510 -0.505156 0.757758 0.299781 0.132341 -0.385202 -0.484482 0.001455 0.028978 0.201700 0.169955 -0.041364 0.194797 -0.249393 -0.266317 0.026393 0.186903 0.210004 -0.001412 -0.341547 0.366523 0.708170
great 0.585775 -0.476714 0.252512 0.130693 -0.045322 0.050061 0.087679 -0.459338 0.037584 0.377220 -0.272600 -0.275610 -0.154542 0.151135 0.178835 -0.216001 -0.230790 -0.031289 -0.014876 -0.542389 0.646753 0.166393 -0.028273 -0.243136 -0.379740 -0.123054 -0.201929 0.166249 -0.138880 -0.102551 0.349671 -0.175897 0.035630 -0.001664 0.296223 0.016808 -0.175259 -0.342300 0.240402 0.553444
been 0.110716 -0.497443 0.175675 0.256186 0.110471 0.045225 -0.096248 -0.360216 -0.523760 0.144545 -0.111606 -0.358958 -0.341938 0.066869 0.271994 -0.347457 -0.244408 -0.331272 0.078787 -0.362042 0.804326 0.011608 0.218017 -0.441657 -0.355656 0.022331 0.355871 0.319387 0.039945 -0.120779 0.232982 -0.048658 -0.034127 0.439773 0.390360 0.120804 -0.203757 -0.417599 0.346290 0.706613
before 0.367546 -0.558289 0.274803 0.247214 0.088389 0.014072 -0.025609 -0.164951 -0.164922 0.350747 -0.293927 -0.184939 -0.326289 0.075266 0.229511 -0.281049 -0.414083 -0.162785 0.019347 -0.386803 0.718527 0.166603 0.142143 -0.526532 -0.457739 0.123156 0.164798 0.180872 -0.031831 0.018001 0.141418 -0.153371 -0.198673 0.277534 0.316374 0.257133 -0.109693 -0.300334 0.422932 0.652000
re 0.372705 -0.354497 0.179851 0.401415 -0.051009 0.149899 0.140970 -0.083513 -0.339971 0.211400 -0.092572 -0.408117 -0.074537 0.130362 0.284661 -0.465022 -0.260176 -0.408372 0.103186 -0.213431 0.729088 0.080292 0.308995 -0.346182 -0.262328 0.140932 0.149881 0.273499 0.046185 -0.068337 0.166928 -0.055929 0.176943 0.279670 0.003989 0.074403 -0.252832 -0.145433 0.247702 0.732323
cat 0.486520 -0.638971 0.328370 0.175086 0.043479 0.016588 0.219076 -0.266214 -0.334123 0.268472 -0.206253 -0.427482 -0.335993 -0.015643 0.251297 -0.459183 -0.329513 -0.029625 -0.058882 -0.385904 0.884062 -0.013057 0.088585 -0.571340 -0.479157 0.087162 -0.029711 0.092728 0.065153 -0.102397 0.299991 -0.153094 0.143339 0.271414 0.274732 -0.002688 -0.305519 -0.098949 0.379909 0.652462
from 0.378500 -0.595190 0.265408 0.008404 0.154001 0.053140 0.161944 -0.316463 -0.207690 0.294696 -0.303017 -0.384540 -0.227367 -0.127603 0.200095 -0.255616 -0.065589 -0.046734 0.051707 -0.406785 0.570554 -0.030066 0.124376 -0.348974 -0.249452 -0.058143 -0.162267 0.083837 0.080065 0.039234 0.191850 -0.020935 -0.124198 -0.091731 0.170632 0.198976 -0.149294 -0.116308 0.264621 0.688503
march 0.309132 -0.864329 0.287921 -0.219812 0.056455 0.033789 0.182288 -0.167265 -0.076412 0.525409 -0.226883 -0.364038 -0.239697 -0.041146 0.290487 -0.348198 -0.485200 0.018369 0.142270 -0.457683 0.544529 -0.196879 -0.104345 -0.919868 0.050226 0.171547 0.055130 -0.318423 0.171631 -0.137181 0.256108 -0.303207 0.163666 0.092383 0.345022 -0.034235 -0.318690 -0.055578 0.687709 0.588985
nothing 0.337791 -0.494478 0.155545 0.276615 0.093309 0.106827 0.142546 -0.308881 -0.418515 0.207597 -0.062573 -0.418687 -0.290340 -0.012700 0.367701 -0.441580 -0.327418 -0.174535 0.128717 -0.363144 0.865320 0.015567 0.237489 -0.516090 -0.494573 0.010374 0.102786 0.137050 0.138328 -0.231664 0.169882 -0.096948 -0.026415 0.189135 0.504972 -0.043953 -0.123708 -0.273515 0.329026 0.740064
once 0.372350 -0.637331 0.230736 0.217144 0.194693 -0.045758 0.160733 -0.160274 -0.065980 0.230225 -0.328951 -0.483827 -0.115766 0.108301 0.196031 -0.166511 -0.117109 -0.114205 0.135345 -0.494069 0.680851 0.073094 0.233635 -0.318879 -0.512175 -0.143106 -0.096040 0.060507 0.007141 -0.162485 0.118427 -0.147568 -0.234110 0.155452 0.354586 0.273919 -0.032481 -0.236225 0.341682 0.494484
we 0.364078 -0.425356 0.251138 0.470894 -0.015673 0.165484 0.138054 -0.169549 -0.424087 0.157082 0.059234 -0.344488 -0.070623 -0.077856 0.167496 -0.306570 -0.250777 -0.259295 -0.030209 -0.198792 0.865435 0.046450 0.173022 -0.431397 -0.229104 -0.004151 0.100430 0.088932 0.341385 -0.099765 0.239212 -0.105182 -0.049469 0.313879 0.273748 0.020172 -0.098518 -0.001466 0.199084 0.541198
large 0.426265 -0.605726 0.189272 0.185057 0.087425 0.053729 0.189495 -0.391723 -0.128727 0.416268 -0.260876 -0.297540 -0.175363 0.137631 0.067545 -0.219635 -0.169018 0.059511 0.118460 -0.499283 0.609536 0.250588 0.187512 -0.442839 -0.436990 0.058731 -0.085043 0.130133 -0.126769 -0.003525 0.315498 -0.239447 -0.080509 0.071788 0.223131 0.209680 0.040816 -0.323465 0.298515 0.546331
last 0.408807 -0.802650 0.203936 0.135542 0.180673 -0.018267 0.010641 -0.196997 -0.001067 0.408203 -0.334537 -0.449003 -0.143968 -0.017582 0.067669 -0.253675 -0.269716 -0.094677 0.207432 -0.608525 0.907840 -0.121087 0.044634 -0.385911 -0.591235 -0.141057 -0.011658 0.158423 0.034711 -0.118650 0.188118 -0.169235 -0.046188 0.158298 0.238379 0.111520 -0.120551 -0.305082 0.473656 0.605799
long 0.376004 -0.583285 0.064629 0.014178 0.106830 0.145639 0.093065 -0.407668 -0.073261 0.391000 -0.388390 -0.275395 -0.087421 -0.093750 0.179680 -0.241617 -0.215721 0.046522 0.006074 -0.484916 0.844402 0.164670 0.021219 -0.208921 -0.364735 0.015893 -0.034519 0.159189 -0.152931 -0.211346 0.171861 -0.100689 0.023006 0.072846 0.390809 0.087364 -0.119677 -0.199167 0.306949 0.645677
will 0.162635 -0.311696 0.012508 0.321335 -0.136906 0.162986 0.285119 -0.264745 -0.341942 0.349886 -0.015079 -0.399512 -0.090264 0.093930 0.305458 -0.397410 -0.409732 -0.390145 -0.226956 -0.092985 0.882346 -0.042376 0.292959 -0.465370 -0.417882 0.037243 0.082087 0.161701 0.290855 -0.081223 0.323867 -0.003320 0.180357 0.331084 0.184668 -0.105834 -0.280994 0.074614 0.174103 0.890970
found 0.453445 -0.614859 0.350793 0.260652 0.124676 -0.028347 -0.009793 -0.305465 -0.122180 0.408857 -0.414817 -0.332340 -0.120769 -0.038405 0.218843 -0.377996 -0.406411 -0.057720 0.206695 -0.587005 0.898428 0.108518 0.275740 -0.581397 -0.533834 0.069588 0.022335 0.266130 -0.014121 -0.168646 0.173144 -0.142381 -0.337328 0.189360 0.414007 0.281809 -0.138915 -0.310413 0.390024 0.753427
looking 0.400248 -0.394402 0.152506 0.042787 0.112674 -0.114312 -0.058545 -0.153546 -0.062242 0.256394 -0.327952 -0.362757 -0.184733 0.025909 0.156131 -0.236912 -0.333153 0.129839 0.203377 -0.623318 0.879958 0.127426 0.352992 -0.435994 -0.280286 -0.049216 -0.058089 0.070395 -0.071339 -0.166546 0.151725 0.064892 -0.132115 0.009647 0.311301 0.101684 0.051133 -0.446445 0.403707 0.651567
right 0.245802 -0.535281 0.117109 0.180509 0.189559 0.057904 0.008887 -0.274578 -0.359724 0.290086 -0.154527 -0.299919 -0.290870 -0.048468 0.011923 -0.214517 -0.360175 -0.139135 0.142117 -0.338936 0.530338 0.085507 0.111321 -0.311019 -0.312952 0.169821 0.010585 0.115438 0.102558 -0.008227 0.047939 -0.059204 -0.165331 0.063114 0.198860 0.038261 -0.106790 -0.160042 0.335367 0.632367
tell 0.154819 -0.297999 0.236046 0.493194 0.132839 0.184644 0.163032 -0.330325 -0.472309 0.327782 0.029403 -0.380890 -0.184151 -0.011753 0.402851 -0.603403 -0.134318 -0.281101 -0.103274 -0.243097 0.948333 0.088165 0.356844 -0.390891 -0.298348 -0.019549 0.212182 0.063395 0.176898 -0.264039 0.203486 -0.095527 0.016426 0.273707 0.240706 0.121480 -0.225829 -0.128570 0.231006 0.707942
hare 0.845155 -0.343202 0.422617 0.023916 -0.018997 0.289507 0.232892 -0.531076 0.040896 0.433435 -0.061790 -0.433389 -0.286077 -0.220449 0.207383 -0.124701 -0.564077 -0.019316 0.072242 -0.128266 0.827537 -0.315124 -0.032833 -0.864439 -0.206701 0.214422 -0.225068 0.120001 0.139996 0.169313 0.007410 -0.071661 0.150319 0.414552 0.454091 0.097614 -0.150492 -0.079814 0.405490 0.572688
moment 0.293026 -0.524894 0.117541 0.117338 0.126037 0.104617 0.107403 -0.453146 -0.107551 0.319838 -0.341417 -0.334507 -0.235511 -0.101529 0.208357 -0.254081 -0.227421 -0.051043 0.012554 -0.547716 0.756668 0.081356 0.111790 -0.494911 -0.565870 0.036252 -0.055307 0.138401 -0.007585 -0.177136 0.114224 -0.238233 -0.165939 0.178385 0.421622 0.104045 -0.194676 -0.265571 0.343557 0.546333
put 0.415580 -0.382060 0.247875 0.106192 0.106394 -0.010381 0.203661 -0.157502 -0.127301 0.181456 -0.202124 -0.384864 -0.085189 -0.023380 0.306273 -0.260403 -0.321988 0.008133 0.116784 -0.448292 0.904650 0.027427 0.063819 -0.505467 -0.393462 0.067579 -0.111733 0.127972 0.056145 -0.230690 0.158811 -0.083653 -0.088770 -0.092205 0.296728 0.185693 -0.076754 -0.247922 0.424308 0.718065
things 0.303213 -0.590612 0.219711 0.102339 0.061759 -0.065816 0.079704 -0.221666 -0.138643 0.216027 -0.159477 -0.447890 -0.149758 0.057706 0.171604 -0.274911 -0.167079 -0.154994 0.113861 -0.423017 0.790427 0.036860 0.125686 -0.393190 -0.319221 0.104458 -0.108921 0.189474 0.130278 -0.162898 0.159859 0.012216 -0.098540 0.195852 0.292016 0.110825 -0.221629 -0.304103 0.210707 0.666640
door 0.344348 -0.588255 0.256611 -0.113184 0.168718 -0.055057 -0.040641 -0.428312 -0.192451 0.480782 -0.319097 -0.377796 -0.243570 -0.002716 0.108129 -0.288204 -0.300011 -0.078261 -0.036061 -0.589034 0.868988 0.051439 0.205979 -0.429677 -0.428802 0.173656 -0.089251 0.075996 0.063638 -0.102065 0.109945 -0.091177 -0.003148 0.091174 0.050352 0.085735 0.020442 -0.341467 0.314238 0.551286
heard 0.411600 -0.493232 0.104021 0.168514 0.150928 0.262721 -0.007592 -0.216383 -0.238097 0.282000 -0.281520 -0.290051 -0.177593 0.036141 0.212909 -0.317883 -0.391782 -0.115373 -0.157228 -0.435551 0.950751 -0.019716 0.137552 -0.362245 -0.515362 0.016676 0.184854 0.146273 -0.110052 -0.134880 0.110370 -0.029266 -0.020312 0.285322 0.317735 -0.055695 -0.157200 -0.079979 0.275155 0.653321
made 0.274453 -0.468237 0.357847 0.118799 0.109008 -0.031646 0.251641 -0.231846 -0.157025 0.330222 -0.345695 -0.268626 -0.310708 0.064899 0.146626 -0.170070 -0.309033 -0.135087 0.030913 -0.569241 0.711470 0.090549 0.270346 -0.495954 -0.332524 0.060880 -0.065681 0.091679 0.092612 -0.066691 0.033891 -0.216569 -0.172465 0.023188 0.327476 0.235356 -0.102158 -0.182941 0.143107 0.686204
next 0.268039 -0.521247 0.087479 0.184902 0.165874 0.080742 0.029935 -0.340666 -0.241172 0.331334 -0.312961 -0.262304 -0.307300 -0.056836 0.110490 -0.369031 -0.321392 -0.168706 0.200181 -0.339194 0.695177 -0.106334 0.088778 -0.416765 -0.291059 0.032547 0.046679 -0.029851 0.229072 -0.028488 0.144517 -0.117856 -0.200726 0.136653 0.091259 0.272644 -0.191420 -0.227387 0.287952 0.661140
white 0.579998 -0.674078 -0.066348 -0.338452 0.074016 -0.072252 0.007893 -0.410995 0.134690 0.357141 -0.131590 -0.483235 -0.090419 -0.300676 0.071639 -0.105810 -0.416995 0.153596 -0.097958 -0.322993 0.716894 -0.072201 0.076792 -0.461710 -0.371929 -0.164839 -0.156141 -0.029975 -0.098896 0.172621 0.158453 -0.186269 0.304565 0.132981 0.240036 0.222740 -0.176317 -0.098864 0.488319 0.410856
caterpillar 0.386137 -0.685411 0.161354 0.215126 0.180074 0.012626 -0.004367 -0.267090 -0.217559 0.384826 -0.247744 -0.319955 -0.349893 -0.235668 0.175710 -0.251137 -0.444081 -0.200794 -0.003013 -0.574533 0.760751 0.073869 0.000138 -0.467653 -0.442578 0.091552 -0.146172 0.059766 0.165825 -0.104963 0.230010 -0.251501 0.014350 0.194901 0.343681 0.023432 -0.082184 -0.220163 0.513987 0.543534
d 0.136641 -0.259134 0.230848 0.339885 -0.022946 0.121132 -0.002528 -0.149255 -0.331331 0.070468 0.061701 -0.164581 -0.297446 0.110420 0.157396 -0.490791 -0.202555 -0.160757 0.027293 -0.168202 0.754590 0.101572 0.221532 -0.324704 -0.391763 0.164158 0.222994 0.123793 0.301671 -0.241096 0.078594 -0.180106 0.125634 0.340855 0.297904 -0.058220 -0.202617 -0.106746 0.168157 0.709264
day 0.297851 -0.555795 0.216587 0.181398 0.181418 0.079237 0.156200 -0.337910 -0.300873 0.306096 -0.337062 -0.444569 -0.175179 0.005584 0.246083 -0.210863 -0.415361 -0.105326 0.076460 -0.303588 0.764538 0.026752 0.222792 -0.275834 -0.474527 0.065522 0.017655 0.185171 0.138776 -0.158222 0.276206 -0.175527 0.054847 0.169272 0.373122 0.011178 -0.143317 -0.173373 0.205738 0.564048
dear 0.347140 -0.564294 -0.021825 0.483619 -0.019589 0.285093 -0.068385 -0.219978 -0.481516 0.226187 -0.002962 -0.228032 -0.065516 -0.037078 0.098408 -0.339588 -0.248058 -0.271864 -0.151286 -0.252535 0.781169 0.187545 0.234031 -0.444585 -0.390927 0.164070 0.301246 0.150287 -0.029458 -0.162572 0.355218 -0.222590 0.221609 0.344767 0.289923 -0.039802 -0.267812 -0.107829 0.362250 0.585558
eyes 0.383936 -0.554748 0.216198 0.092931 0.038170 -0.047477 0.025529 -0.231875 -0.148034 0.237799 -0.280244 -0.407597 -0.092318 0.068291 0.135908 -0.312248 -0.271954 -0.023553 -0.081336 -0.440359 0.753442 0.222950 0.119241 -0.386831 -0.519960 -0.083553 -0.284033 -0.039142 -0.029937 -0.045444 0.077184 -0.040580 -0.060573 -0.077044 0.144358 0.332849 -0.076804 -0.351559 0.436694 0.556568
look 0.361906 -0.564887 0.220607 0.135621 0.211630 0.033732 0.065850 -0.392688 -0.214923 0.425745 -0.250611 -0.332586 -0.137072 0.081823 0.188614 -0.232060 -0.410353 -0.217498 0.103030 -0.460941 0.824225 0.014795 0.251284 -0.448478 -0.353967 -0.050302 -0.035361 0.195243 0.084046 -0.110209 0.240034 -0.089765 -0.055595 0.260200 0.234318 0.089118 -0.057146 -0.196991 0.431288 0.748424
replied 0.395021 -0.550253 0.271948 -0.028457 0.222571 0.081617 0.054462 -0.235907 -0.051171 0.439259 -0.064462 -0.418494 -0.186576 -0.205972 0.281844 -0.361676 -0.327090 -0.114833 0.150641 -0.358087 0.776226 -0.076232 0.115501 -0.412614 -0.405593 -0.088339 0.061758 -0.078973 0.135661 -0.079442 0.253539 -0.005314 0.257668 0.003627 0.455198 -0.045270 -0.029257 -0.085863 0.513920 0.511055
might 0.347254 -0.448065 0.304990 0.533799 0.153445 0.204459 0.078980 -0.299545 -0.319005 0.290605 -0.018922 -0.227667 -0.256519 -0.108275 0.125249 -0.421112 -0.364682 -0.184690 -0.076510 -0.348822 0.913308 0.058717 0.173818 -0.600512 -0.427299 0.153565 0.210472 0.264674 0.146701 -0.152667 0.309197 -0.159057 -0.025309 0.411632 0.328036 0.174532 -0.182810 -0.209315 0.300621 0.852961
three 0.293097 -0.374309 0.246151 0.061650 0.099356 0.123596 0.170121 -0.285733 0.016704 0.408361 -0.117792 -0.482389 -0.065412 -0.123358 0.105732 -0.247532 -0.315825 -0.190422 0.065569 -0.368382 0.592176 0.052513 0.160908 -0.157522 -0.361651 -0.001858 -0.181437 0.187237 0.014250 0.053142 0.210425 -0.214654 0.009111 0.021765 0.273728 0.200981 -0.011047 -0.318712 0.294055 0.510396
going 0.323090 -0.616657 0.230780 0.123321 0.135840 0.159985 0.056881 -0.301848 -0.221227 0.242599 -0.400269 -0.419550 -0.205290 0.053942 0.223186 -0.279354 -0.290524 -0.092202 -0.000124 -0.492791 0.825402 0.002408 0.232388 -0.349417 -0.386345 0.105086 0.013468 0.205183 -0.106564 -0.126475 0.248687 -0.175567 -0.189002 0.039431 0.394455 0.106364 -0.148651 -0.347651 0.410745 0.830584
good 0.388540 -0.551827 0.170354 0.313499 0.112949 -0.075661 -0.096455 -0.420217 -0.007464 0.393917 -0.177065 -0.192417 -0.205671 0.170692 0.110234 -0.269091 -0.361795 -0.043752 0.185136 -0.543357 0.776945 0.207699 0.015343 -0.358416 -0.429239 0.089064 -0.059531 0.161901 -0.253175 -0.272886 0.189605 -0.146498 -0.125855 0.201393 0.492245 -0.112817 -0.148389 -0.172396 0.241382 0.500858
make 0.332441 -0.311046 0.100851 0.223904 0.189439 0.019700 0.025151 -0.263998 -0.378027 0.378872 -0.102807 -0.255556 -0.095056 0.050119 0.349052 -0.370416 -0.342746 -0.111482 0.052973 -0.264116 0.627109 0.096372 0.180072 -0.396022 -0.432236 0.125728 0.206532 0.048178 0.033269 -0.054971 0.248109 -0.138990 0.059956 0.225479 0.189379 0.169015 -0.188234 -0.047796 0.287474 0.732367
poor 0.407354 -0.551511 0.129973 0.139723 0.010422 0.099808 -0.111630 -0.396863 -0.227338 0.502676 -0.224775 -0.412236 -0.227532 0.045426 0.155682 -0.396179 -0.317248 -0.206730 0.016735 -0.541710 0.844067 0.181826 -0.041673 -0.380114 -0.451111 0.143669 -0.022728 0.267854 -0.092628 -0.155195 0.251388 -0.217378 0.057544 0.252497 0.311527 -0.134047 -0.114716 -0.140241 0.411659 0.579461
seemed 0.289572 -0.462918 0.108329 0.221139 0.110917 0.057031 0.098701 -0.431563 -0.275528 0.312996 -0.212708 -0.340244 -0.131900 -0.024845 0.156338 -0.433380 -0.370145 -0.096199 0.184912 -0.474711 0.720316 -0.080816 0.053542 -0.499543 -0.513092 0.051730 0.055938 0.182342 0.193173 -0.219692 0.169317 -0.243277 -0.064389 -0.001774 0.447054 0.043257 -0.270751 -0.194828 0.160814 0.800788
should 0.218961 -0.386297 0.167492 0.505078 0.089145 0.159306 0.230772 -0.257652 -0.391915 0.165774 -0.106193 -0.158156 -0.111825 -0.083266 0.255128 -0.502136 -0.470491 -0.345551 -0.000306 -0.274375 0.909295 0.165051 0.200595 -0.351098 -0.403271 0.172882 0.213324 0.230060 0.226922 -0.252071 0.270851 -0.256184 -0.086260 0.194618 0.223990 0.056484 -0.146180 -0.127248 0.289126 0.787386
course 0.455363 -0.537729 0.182035 0.049211 0.053504 0.044538 0.129379 -0.496470 -0.281468 0.310877 -0.214567 -0.362683 -0.280995 0.028712 0.314748 -0.393874 -0.404599 0.016799 -0.107425 -0.513359 0.854113 -0.022692 0.242732 -0.343114 -0.209740 0.036431 -0.080556 0.057371 0.177838 -0.003193 0.260493 -0.097488 0.140728 0.176470 0.262613 0.037301 -0.117582 -0.168759 0.274722 0.531860
too 0.398725 -0.515798 0.176122 0.217451 0.221991 0.049127 0.095738 -0.365306 -0.200303 0.147984 -0.224918 -0.365524 -0.230581 0.041221 0.146812 -0.371235 -0.255782 -0.081328 -0.093835 -0.475598 0.762422 0.110620 0.213233 -0.328609 -0.442944 0.064842 0.154919 0.239704 -0.034936 -0.124128 0.267183 -0.087879 -0.127356 0.053750 0.389781 -0.038320 -0.162463 -0.170613 0.218530 0.470703
upon 0.255030 -0.482814 0.296551 -0.005180 0.034460 0.028111 0.170755 -0.355520 -0.062123 0.237457 -0.283596 -0.413633 -0.099531 -0.014240 0.026068 -0.282981 -0.247964 0.084725 -0.000678 -0.489538 0.591400 0.149902 0.144782 -0.180256 -0.227705 -0.029512 -0.168049 0.219136 -0.111536 -0.187682 0.108975 -0.021962 -0.115831 -0.046092 0.061945 0.175951 -0.008495 -0.106126 0.285593 0.375653
without 0.301199 -0.441720 0.166001 0.113977 -0.027335 0.056336 0.031264 -0.251281 0.019729 0.227228 -0.166061 -0.311157 -0.233898 0.046751 0.115975 -0.288222 -0.283696 -0.066164 0.136135 -0.441936 0.710759 0.057831 0.227371 -0.416121 -0.418599 0.049878 -0.058276 0.079679 0.001768 0.036286 0.153650 -0.124614 -0.150921 0.025868 0.261265 0.217137 0.059655 -0.279259 0.283071 0.535645
won 0.107668 -0.471865 0.037906 0.495190 -0.066701 0.160019 -0.132309 -0.224804 -0.355560 0.266612 0.114699 -0.428612 -0.057045 -0.016507 0.402490 -0.524675 -0.433095 -0.048984 -0.194606 -0.185185 0.910485 0.072239 0.285007 -0.256659 -0.377309 0.108250 0.305033 0.145096 0.354430 -0.071878 0.396067 0.046562 0.270652 0.391183 0.101368 -0.235339 -0.149071 -0.060302 0.032157 0.838408
away 0.431868 -0.632967 0.251473 0.117362 0.099701 -0.070520 -0.009402 -0.223605 -0.150940 0.235292 -0.224520 -0.373138 -0.072022 -0.150891 0.042585 -0.371716 -0.127547 -0.057230 -0.078948 -0.436029 0.675033 0.070915 0.187125 -0.430495 -0.346069 0.100664 0.078886 0.032301 0.147315 -0.043590 0.218031 -0.074586 -0.165864 -0.004398 0.419243 0.291545 0.000686 -0.178415 0.305524 0.510275
rather 0.255980 -0.413118 0.243080 0.177483 0.008670 0.099646 0.101992 -0.332581 -0.260942 0.327216 -0.170016 -0.411387 -0.166612 -0.018012 0.148479 -0.387371 -0.243796 -0.096514 0.088359 -0.348670 0.721726 0.144728 0.171393 -0.232043 -0.350680 -0.077110 -0.052219 0.210908 -0.065650 -0.159011 0.229164 -0.212036 -0.134249 0.035840 0.346861 0.189303 -0.159241 -0.124887 0.353021 0.524292
shall 0.206019 -0.398498 0.074837 0.395164 0.043159 0.287085 0.068114 -0.184131 -0.290929 0.127171 -0.122659 -0.413506 -0.032687 0.093217 0.136494 -0.398452 -0.265714 -0.294852 0.023259 -0.193272 0.765453 0.023835 0.220724 -0.277302 -0.360784 0.022036 0.223594 0.167310 0.267834 -0.289206 0.257442 -0.086077 -0.018559 0.360336 0.328227 0.034008 -0.238215 -0.099193 0.190059 0.739043
soon 0.364832 -0.403751 0.351342 0.208994 0.183932 0.083832 0.041290 -0.270373 -0.141560 0.375373 -0.270646 -0.271234 -0.175762 -0.092523 0.217845 -0.294694 -0.433814 -0.098777 0.064569 -0.485787 0.869259 0.004344 0.234147 -0.528549 -0.521946 0.108729 0.017588 0.257442 0.014534 -0.127873 0.124018 -0.095011 -0.232046 0.088250 0.433680 0.043692 -0.115666 -0.345120 0.520395 0.576311
while 0.352671 -0.652995 0.059994 -0.073649 0.091322 -0.038592 0.049839 -0.340135 -0.078114 0.272444 -0.297420 -0.467456 -0.305244 -0.134309 0.149791 -0.261167 -0.276634 -0.113309 0.038785 -0.421173 0.683580 -0.004289 0.219664 -0.440689 -0.389981 0.049582 -0.011935 0.011917 -0.117879 -0.016173 0.099109 -0.142009 -0.170146 0.034066 0.370801 0.028434 -0.000584 -0.233196 0.316416 0.550501
yet 0.370957 -0.567045 0.168854 0.133913 0.136472 -0.012589 0.186586 -0.320451 -0.185331 0.360450 -0.100189 -0.400948 -0.076401 -0.092464 0.173941 -0.377013 -0.335838 -0.173289 0.150889 -0.418443 0.928842 -0.008045 0.212743 -0.358856 -0.442885 0.099356 0.183825 0.187296 0.101473 -0.205125 0.268201 -0.049050 0.114454 0.224658 0.206150 -0.016370 -0.201732 -0.202742 0.276595 0.673581
chapter 0.473996 -0.583897 0.180347 -0.115265 0.055145 0.077702 0.081626 -0.398051 0.014044 0.328803 -0.218540 -0.322867 -0.285715 -0.079058 0.096710 -0.324143 -0.301458 0.137534 0.060808 -0.344760 0.642301 0.007291 0.062592 -0.333660 -0.167820 0.049167 -0.267584 -0.045452 0.230340 0.014910 0.155904 -0.124395 0.196165 0.058228 0.184770 0.049168 -0.029893 -0.087600 0.168878 0.429294
same 0.571378 -0.670020 0.100174 -0.066429 0.076891 0.155688 0.032003 -0.402609 -0.132595 0.412504 -0.255536 -0.420549 -0.352734 -0.111470 0.130387 -0.240722 -0.381665 -0.191674 -0.029700 -0.427423 0.817250 0.142494 0.135436 -0.478366 -0.445934 0.094830 -0.044126 0.218540 0.069720 -0.185254 0.101995 -0.213355 -0.080756 0.197557 0.205948 0.090541 -0.097796 -0.305562 0.485407 0.799512
sure 0.266343 -0.452499 0.119934 0.448220 0.060174 0.335353 0.127968 -0.079550 -0.498007 0.252553 -0.170710 -0.120850 -0.330048 0.089687 0.296816 -0.455193 -0.224012 -0.192383 -0.098428 -0.338312 0.818158 0.079481 0.124762 -0.320706 -0.459117 -0.000785 0.101294 0.288756 0.222353 -0.290890 0.138949 -0.168882 -0.127869 0.380513 0.324483 -0.161641 -0.304190 -0.055386 0.334080 0.724580
than 0.274310 -0.504473 0.149017 0.289664 0.090141 0.022545 0.070139 -0.234473 -0.082078 0.311007 -0.173841 -0.258712 -0.162748 0.035600 0.139827 -0.463580 -0.392360 -0.225455 0.104490 -0.426842 0.703205 0.112882 0.134475 -0.400991 -0.453980 -0.074001 0.171213 0.158117 -0.039938 -0.193135 0.207670 -0.001564 -0.041192 0.229975 0.387614 -0.089704 -0.195391 -0.152943 0.327479 0.660538
took 0.404510 -0.472722 0.250156 -0.065845 0.136572 -0.005068 -0.039922 -0.314382 -0.148157 0.482604 -0.328490 -0.400806 -0.243300 -0.100807 0.153552 -0.266218 -0.271713 -0.033411 0.145225 -0.481371 0.745775 0.055638 0.206251 -0.385609 -0.373717 0.091900 -0.071242 -0.032241 0.121263 -0.073394 0.136591 -0.208519 0.014942 0.037955 0.226237 0.202637 0.062912 -0.054735 0.325766 0.551448
added 0.446381 -0.485108 0.341962 0.028976 0.120755 0.187494 0.186123 -0.377444 -0.149186 0.417862 -0.158975 -0.415638 -0.262045 -0.150141 0.140562 -0.278773 -0.471019 -0.114341 -0.063619 -0.463503 0.781613 -0.008169 0.042292 -0.475513 -0.242349 0.058528 -0.001650 0.015913 0.133283 -0.032985 0.181105 -0.175997 -0.034679 -0.005105 0.367954 0.103125 -0.116278 -0.126476 0.318969 0.597090
felt 0.288962 -0.551204 0.307773 0.300382 0.156580 0.068487 -0.006245 -0.411709 -0.062130 0.430400 -0.349998 -0.259610 -0.171776 0.023871 0.094092 -0.222956 -0.315159 -0.185637 0.127950 -0.479457 0.926236 0.239956 0.318193 -0.318826 -0.409294 -0.030799 0.042709 0.236311 0.015082 -0.274507 0.160481 -0.129990 -0.027783 0.199828 0.345229 0.008219 -0.131004 -0.304720 0.296774 0.648900
half 0.327642 -0.456181 0.207193 0.354020 0.169475 0.098863 0.095893 -0.362623 -0.262352 0.270866 -0.149930 -0.466484 -0.089633 0.062793 0.241428 -0.326202 -0.273680 -0.157108 0.010197 -0.435253 0.778973 0.150706 0.153654 -0.413103 -0.405602 0.112112 0.004683 0.063136 -0.096592 -0.165824 0.366696 -0.119656 -0.080824 0.162151 0.346871 0.137399 -0.139397 -0.186871 0.203477 0.472505
another 0.385123 -0.531769 0.175442 0.076466 0.155716 0.074747 0.099718 -0.374922 -0.050843 0.250349 -0.357508 -0.402579 -0.225548 -0.033064 0.096970 -0.327718 -0.239692 0.006003 0.022367 -0.389216 0.759360 0.034864 0.008359 -0.424744 -0.415374 -0.090406 -0.100962 0.076090 0.124289 0.046685 0.173982 -0.064496 0.073517 0.288853 0.246005 0.146248 0.000127 -0.341975 0.272988 0.607277
ever 0.352598 -0.416675 0.108536 0.306806 0.143941 0.089759 0.076333 -0.207234 -0.287637 0.194463 -0.209210 -0.181291 -0.201366 0.011594 0.275423 -0.288442 -0.287493 -0.202601 0.064100 -0.367213 0.715437 0.109556 0.267330 -0.400976 -0.426043 0.026465 0.100465 0.212645 -0.083792 -0.042388 0.017367 -0.074355 0.080519 0.194073 0.301759 0.077893 -0.205346 -0.151750 0.261887 0.534863
getting 0.232837 -0.417603 0.319018 0.127829 0.225828 0.006383 0.049720 -0.210751 -0.133553 0.264870 -0.195333 -0.376303 -0.191804 -0.039439 0.049282 -0.401673 -0.268093 -0.059960 0.094234 -0.491784 0.678470 0.151759 0.043388 -0.349416 -0.385043 -0.007433 -0.082102 0.200098 -0.032138 -0.066192 0.196048 -0.216714 -0.214402 0.112430 0.194258 0.171016 -0.120659 -0.327871 0.281505 0.546361
jury 0.381327 -0.560268 0.259768 0.171844 0.080803 -0.055914 0.128959 -0.263878 -0.212444 0.271678 -0.105655 -0.438830 -0.198439 -0.013443 0.213419 -0.481609 -0.321275 -0.213150 0.096522 -0.381318 0.775598 0.165232 0.286391 -0.374718 -0.289999 0.065076 -0.032549 0.203775 0.172960 -0.054149 0.242631 -0.130057 0.008226 0.207334 0.212551 0.104661 -0.057309 -0.162736 0.289869 0.733548
let 0.289383 -0.383586 0.199323 0.417745 0.033404 0.110365 0.114906 -0.216881 -0.381865 0.253923 -0.073052 -0.279814 -0.273806 -0.059013 0.363342 -0.406146 -0.152956 -0.274665 0.001731 -0.246184 0.681933 0.092257 0.115711 -0.437759 -0.371557 -0.008061 0.129911 0.147429 0.098245 -0.026831 0.363971 -0.045866 -0.151377 0.210210 0.422798 -0.022717 -0.019157 -0.107790 0.208868 0.567302
take 0.265206 -0.353909 0.139001 0.399376 0.162276 -0.000009 0.002275 -0.372701 -0.355727 0.291580 -0.130068 -0.508403 -0.168117 0.018913 0.222024 -0.402141 -0.341666 -0.189940 0.054974 -0.339677 0.859092 0.084748 0.252250 -0.314470 -0.342997 0.115676 0.062029 0.069713 0.046569 -0.288755 0.379401 0.000906 0.117261 0.219311 0.245149 -0.020759 -0.206877 -0.064166 0.246324 0.559540
find 0.384491 -0.484388 0.358863 0.308030 0.205483 -0.022430 0.003751 -0.332600 -0.296631 0.258353 -0.236254 -0.333361 -0.246114 0.002092 0.284516 -0.400400 -0.380053 -0.093470 0.039371 -0.483752 0.719163 0.079067 0.146603 -0.513241 -0.445036 0.094480 0.047968 0.097293 -0.026302 -0.134195 0.206532 -0.099723 -0.216359 0.151950 0.450919 0.108771 -0.226459 -0.139175 0.366640 0.686305
hand 0.499776 -0.460470 0.340560 0.079601 0.011194 0.008414 0.190110 -0.324341 0.027877 0.287915 -0.324586 -0.357355 -0.138477 0.007167 0.141852 -0.344562 -0.250419 0.143960 -0.050398 -0.439457 0.771030 0.033186 0.158755 -0.326253 -0.435783 -0.107701 -0.143644 0.025226 -0.007828 -0.058690 0.119550 -0.052057 -0.112444 0.030828 0.278888 0.173175 -0.074019 -0.266697 0.374780 0.604072
minute 0.524296 -0.380029 0.061409 0.087170 0.228984 -0.048794 0.046301 -0.542144 0.160057 0.314644 -0.303760 -0.447813 -0.042636 0.111931 0.034242 -0.219321 -0.403487 -0.144553 0.056344 -0.545235 0.754807 0.108935 0.178733 -0.308515 -0.534733 0.016901 0.056943 0.281897 0.037448 -0.179390 0.382000 -0.238800 0.116890 0.066058 0.241269 0.111495 -0.202944 -0.330459 0.334033 0.613301
till 0.388806 -0.495531 0.233119 0.087799 -0.002548 0.001064 0.055073 -0.134408 -0.055636 0.305971 -0.178222 -0.386266 -0.219976 0.048362 0.161457 -0.162387 -0.215841 -0.150998 0.126537 -0.410206 0.641139 0.034938 0.066712 -0.384057 -0.485303 -0.025807 0.002432 -0.040060 -0.025616 -0.151125 0.110093 0.007014 -0.086996 0.175031 0.421012 0.237497 -0.192870 -0.184481 0.330735 0.500607
wish 0.148225 -0.458165 0.259914 0.418672 0.099869 0.132889 0.155398 -0.187711 -0.279872 0.209139 -0.034226 -0.274234 -0.158103 0.045293 0.350465 -0.303313 -0.288544 -0.263675 -0.117409 -0.182313 0.901134 0.101018 0.302102 -0.276387 -0.490460 -0.024428 0.318409 0.189041 0.156759 -0.058469 0.238422 -0.106331 0.149486 0.407195 0.393126 0.025899 -0.255088 -0.119836 0.314094 0.556962
words 0.310287 -0.333047 0.085740 0.084703 0.157236 0.013118 0.108451 -0.275362 -0.182234 0.335990 -0.145311 -0.432243 -0.133765 -0.014106 0.179626 -0.341492 -0.205405 0.046830 0.052032 -0.378137 0.744700 0.100313 0.008079 -0.437307 -0.360133 0.073356 -0.007448 0.105759 0.011970 -0.068629 0.182447 -0.156715 -0.099868 0.171904 0.193649 0.107283 -0.185079 -0.197969 0.173444 0.556745
anything 0.237099 -0.356726 0.192270 0.335336 0.114788 0.078156 -0.039467 -0.335621 -0.347023 0.243259 -0.208624 -0.342992 -0.275139 -0.029058 0.183043 -0.409991 -0.282927 -0.302484 0.084084 -0.262627 0.726855 0.040251 0.091035 -0.400633 -0.291502 0.095226 0.164664 0.140536 0.059232 -0.124922 0.211970 -0.041502 0.062045 0.344821 0.364966 0.005327 -0.180165 -0.332306 0.296531 0.601450
cried 0.234985 -0.455982 0.227335 0.126050 0.207919 -0.009278 0.069988 -0.209860 -0.187160 0.342162 -0.051516 -0.354317 -0.092512 -0.104072 0.166114 -0.266319 -0.378585 -0.016640 0.145684 -0.300673 0.669295 -0.029427 0.031042 -0.318964 -0.465210 0.036844 0.034706 0.106077 0.197569 -0.155386 0.132428 0.044922 0.165571 0.181941 0.383694 0.173452 -0.023731 -0.132788 0.276215 0.411425
however 0.386575 -0.542924 0.208398 0.063963 0.019216 0.069483 0.034994 -0.185531 -0.063849 0.353657 -0.300510 -0.385188 -0.263552 -0.010220 0.164418 -0.326888 -0.207102 -0.076263 -0.036500 -0.457582 0.772293 0.048446 0.237211 -0.316690 -0.294816 -0.065603 -0.015956 0.075348 0.127923 -0.138661 0.072931 -0.115702 -0.135387 0.023855 0.319730 0.235621 -0.057640 -0.184620 0.377047 0.582896
sort 0.432359 -0.611095 0.207647 0.164584 0.200486 0.062900 0.201863 -0.406277 -0.269208 0.290007 -0.487290 -0.580409 -0.256906 0.058599 0.325859 -0.469420 -0.448655 -0.027827 0.133186 -0.464598 0.853279 -0.038503 0.203396 -0.377013 -0.335587 -0.011242 -0.143193 0.245224 0.165515 -0.089396 0.317936 -0.226514 -0.023015 0.168678 0.274532 0.005391 -0.013110 -0.116796 0.293711 0.756492
tea 0.400775 -0.545707 0.159210 0.260254 0.155210 0.126275 0.099515 -0.093139 -0.214175 0.396461 -0.108008 -0.400518 -0.043320 0.010673 0.233065 -0.321898 -0.155813 -0.150157 0.050089 -0.440589 0.801490 0.144798 0.164648 -0.392599 -0.267416 -0.074470 0.016048 0.064888 0.128938 -0.124255 0.225486 0.032399 0.023179 0.123003 0.313952 0.176777 -0.078787 -0.177213 0.289514 0.472339
being 0.330856 -0.486643 0.224425 0.105385 0.014665 0.060069 0.134421 -0.256106 -0.103954 0.365756 -0.219941 -0.425250 -0.262218 0.036612 0.131733 -0.388593 -0.306284 -0.075553 0.085673 -0.489825 0.730212 0.072268 0.118422 -0.239550 -0.438787 0.122222 -0.027561 0.187979 0.139537 -0.141168 0.268263 -0.230561 -0.160851 0.175095 0.317834 -0.000274 0.010364 -0.167158 0.265788 0.473310
curious 0.259921 -0.541197 0.164517 0.324703 0.203443 -0.000824 0.128968 -0.262210 -0.148626 0.392071 -0.175850 -0.224615 -0.238034 0.007659 0.124561 -0.395339 -0.452050 -0.121305 0.074569 -0.438624 0.551520 0.122569 0.153095 -0.377717 -0.308087 0.076018 -0.016297 0.196430 0.008746 -0.169278 0.215814 -0.225286 -0.056875 0.237115 0.366920 -0.122065 -0.047347 -0.242248 0.283044 0.527583
end 0.492133 -0.616609 0.132771 0.055144 0.175002 0.101076 0.074979 -0.342228 -0.119248 0.493018 -0.399779 -0.491143 -0.340526 0.001434 0.319277 -0.405692 -0.349163 -0.155888 -0.050444 -0.409448 0.944386 -0.106720 0.273866 -0.460563 -0.315075 0.007339 -0.129572 0.155116 0.105165 -0.094772 0.339628 -0.073109 0.067646 0.122466 0.247992 0.182463 -0.126249 -0.195606 0.427100 0.755499
feet 0.402156 -0.557517 0.110215 0.215026 0.039121 -0.097680 0.077082 -0.164502 -0.054006 0.326082 -0.312645 -0.493178 -0.257507 0.074387 0.060755 -0.378010 -0.249138 0.022978 0.040579 -0.519119 0.718422 0.097822 0.233585 -0.365022 -0.443711 0.040817 0.031265 0.139309 0.020906 -0.119103 0.222602 -0.056185 -0.120691 0.077568 0.139406 0.293005 -0.177490 -0.438454 0.302001 0.514887
old 0.186921 -0.675730 0.215285 0.041985 0.117485 -0.000370 0.083401 -0.365524 -0.243287 0.277203 -0.232399 -0.426528 -0.147234 -0.137931 0.195175 -0.353399 -0.401735 -0.059066 0.015090 -0.210125 0.759213 -0.051265 0.245620 -0.349612 -0.312233 0.092998 0.131858 0.051516 0.299045 -0.024013 0.154784 -0.018784 0.186824 0.184351 0.232611 0.073906 -0.182856 -0.167926 0.160191 0.686785
please 0.159974 -0.453929 0.178129 0.268883 -0.045590 0.173487 0.113395 -0.155865 -0.284191 0.253443 -0.059593 -0.346139 -0.045396 0.017771 0.198076 -0.344560 -0.309134 -0.008710 0.063654 -0.195610 0.612996 0.026063 0.289529 -0.294461 -0.309936 0.010636 -0.001638 0.123177 0.346542 -0.185563 0.152492 -0.011904 0.069523 0.091799 0.361382 0.095609 -0.102316 -0.062620 0.239811 0.522003
tried 0.341663 -0.426018 0.313993 0.231985 0.132843 0.103881 0.118093 -0.239515 -0.207889 0.394254 -0.178096 -0.407245 -0.195159 0.050302 0.235896 -0.221781 -0.291707 -0.072704 0.072117 -0.270942 0.887898 0.148179 0.082412 -0.473791 -0.561499 0.137021 0.077547 0.197312 0.124985 -0.198317 0.211352 -0.204744 0.014222 0.084238 0.356771 0.110720 -0.305982 -0.285210 0.301378 0.653235
bill 0.368865 -0.517999 0.044923 0.152491 0.200492 -0.002866 0.180967 -0.357191 -0.211722 0.227424 -0.254024 -0.375763 -0.113126 -0.133246 0.150753 -0.429195 -0.221835 -0.201209 -0.020011 -0.509682 0.690278 0.010727 0.127125 -0.480328 -0.423619 0.039635 -0.034252 0.104548 -0.036545 -0.095180 0.109002 -0.123774 -0.119525 0.267436 0.195317 0.013246 -0.020762 -0.260941 0.241770 0.551053
court 0.395654 -0.502818 0.141357 0.051076 -0.032774 -0.015793 0.117426 -0.260439 -0.320250 0.322951 -0.323234 -0.422244 -0.338955 -0.063693 0.223649 -0.352637 -0.298221 -0.117607 0.122928 -0.341670 0.945297 0.117691 0.207917 -0.526087 -0.510931 -0.011469 -0.112303 -0.022520 0.151696 -0.022296 0.165760 -0.055896 -0.102436 0.204628 0.354655 0.076423 -0.186660 -0.222219 0.464834 0.651507
eat 0.184851 -0.438012 0.139734 0.324123 0.223040 0.199488 -0.035701 -0.203228 -0.296422 0.357416 -0.116789 -0.281595 -0.238295 -0.079858 0.344658 -0.417948 -0.296272 -0.197723 -0.045682 -0.415428 0.834123 0.142219 0.239834 -0.334286 -0.533404 -0.010762 0.077195 0.140848 0.200414 -0.168025 0.242645 -0.150401 0.029653 0.264316 0.184267 -0.007661 -0.281762 -0.142411 0.276340 0.587243
enough 0.163188 -0.520289 0.095529 0.338307 0.044560 0.064280 0.173873 -0.308188 -0.277830 0.286420 -0.165047 -0.319247 -0.279497 -0.136904 0.172135 -0.279412 -0.274097 -0.033469 -0.008079 -0.278049 0.672002 0.002727 0.180715 -0.397091 -0.379047 0.128039 0.042614 0.166950 -0.009239 -0.098787 0.300146 -0.024701 -0.102416 0.214797 0.372934 -0.016863 -0.141909 -0.232748 0.255553 0.640432
even 0.289288 -0.397572 0.133325 0.224379 0.089781 0.001800 0.121023 -0.195149 -0.186043 0.446373 -0.102822 -0.431324 -0.214087 0.074306 0.157237 -0.343667 -0.261146 -0.127120 -0.048397 -0.323311 0.912521 -0.058131 0.096998 -0.392780 -0.334784 0.052061 0.162697 0.101612 0.123042 0.011000 0.307689 -0.122088 0.078610 0.246585 0.357913 -0.022935 -0.242125 -0.294234 0.279267 0.605720
house 0.439546 -0.479386 0.224874 0.081039 0.175592 0.053248 0.060817 -0.422186 -0.123196 0.391234 -0.414794 -0.475086 -0.315205 -0.122405 0.075620 -0.253387 -0.253286 -0.171683 0.062228 -0.407341 0.808024 0.202019 0.178797 -0.521589 -0.476064 0.082496 -0.069001 0.058754 0.078045 -0.046513 0.254976 -0.101839 -0.041054 0.071586 0.150715 0.205650 -0.042425 -0.313197 0.439599 0.633689
something 0.391180 -0.332758 0.211826 0.349667 0.130039 0.024566 0.160430 -0.276557 -0.226428 0.268124 -0.089645 -0.260054 -0.046608 -0.050922 0.097148 -0.271202 -0.227221 -0.116250 -0.078429 -0.305573 0.672084 0.028173 0.253399 -0.352207 -0.397871 -0.046254 0.229867 0.053573 0.104273 -0.035528 0.232257 -0.225927 -0.038714 0.159558 0.184475 -0.004541 -0.290875 -0.221697 0.164937 0.650037
soup 0.249549 -0.435842 0.107624 0.015330 0.271083 -0.075288 0.056381 -0.350890 -0.072343 0.400258 -0.208375 -0.503419 -0.273281 -0.207338 0.134455 0.000173 -0.355809 0.030638 0.230518 -0.397173 0.555183 -0.090897 0.259405 -0.437351 -0.248528 0.008373 -0.047557 -0.172112 0.063078 -0.124967 0.019613 0.066672 0.154727 -0.037670 0.302823 -0.041850 -0.223549 0.033843 0.177214 0.258256
table 0.455574 -0.648961 0.188278 0.100075 0.199408 0.025139 0.172443 -0.339015 -0.071846 0.443494 -0.347108 -0.461348 -0.284827 -0.044643 0.260299 -0.305863 -0.238869 -0.105839 0.148000 -0.360981 0.916567 0.042350 0.081635 -0.394867 -0.384359 0.078584 -0.002595 0.166996 -0.001023 -0.080473 0.180306 -0.176506 0.060196 0.170541 0.401502 0.155137 -0.126337 -0.342540 0.233356 0.771618
use 0.265711 -0.566642 0.128183 0.168981 0.221816 0.096060 0.164823 -0.423151 -0.167033 0.326956 -0.315284 -0.507828 -0.101087 -0.133914 0.213884 -0.386961 -0.356441 -0.141283 0.051527 -0.372670 0.751124 0.103691 0.120991 -0.494103 -0.387031 0.007375 0.025174 0.209252 0.093411 -0.145370 0.223608 -0.155675 -0.031802 0.202256 0.428464 0.097798 -0.138801 -0.241122 0.415995 0.551906
wonder 0.379359 -0.504552 0.288393 0.297861 0.090775 0.242591 0.188937 -0.254304 -0.287460 0.284897 -0.117375 -0.245008 -0.164105 -0.080897 0.357052 -0.577737 -0.422478 -0.071820 0.058189 -0.415834 0.868998 0.130532 0.179783 -0.361200 -0.463355 -0.065696 0.197876 0.297353 0.106020 -0.269828 0.209174 -0.225315 0.057276 0.297700 0.315501 0.013575 -0.164441 -0.132974 0.363484 0.726728
asked 0.429885 -0.562868 0.216049 0.159478 0.038550 0.039157 0.164437 -0.351758 -0.118820 0.300604 -0.315200 -0.273973 -0.173294 -0.035427 0.230286 -0.262143 -0.285093 -0.108718 0.088842 -0.431480 0.788805 0.072381 0.128146 -0.342609 -0.431481 0.001989 0.099056 0.036208 0.092984 -0.107839 0.166677 0.044857 0.118884 0.115828 0.341770 0.130663 -0.047158 -0.239752 0.389467 0.616057
perhaps 0.236276 -0.579048 0.105733 0.310797 0.152701 0.000563 0.024593 -0.106634 -0.332816 0.275786 -0.037983 -0.373771 -0.185321 -0.065192 0.146386 -0.397756 -0.252094 -0.142398 0.052534 -0.261393 0.688292 -0.012764 0.278056 -0.532667 -0.374785 -0.008625 0.126699 0.063492 0.134793 -0.108956 0.271831 -0.028078 -0.045091 0.263772 0.448548 -0.052306 -0.102176 -0.254221 0.350307 0.530668
question 0.378295 -0.419363 0.133609 0.107224 0.117698 0.169533 0.001551 -0.254741 -0.113242 0.373993 -0.162428 -0.324915 -0.371794 -0.006163 0.284621 -0.320684 -0.350247 -0.022037 0.008127 -0.320544 0.807368 -0.050617 0.243331 -0.430300 -0.360798 0.115422 0.015438 0.085420 0.143826 -0.180527 0.162867 -0.143515 -0.014260 0.243551 0.225867 0.079559 -0.169273 -0.063869 0.346241 0.578024
sat 0.361963 -0.575225 0.304642 0.093966 0.048070 -0.012378 -0.003832 -0.319144 -0.070686 0.287383 -0.252963 -0.513571 -0.075921 0.009539 0.148619 -0.455923 -0.263658 -0.148356 0.178190 -0.512062 0.894949 0.275149 0.036961 -0.430043 -0.353962 0.109892 -0.068640 0.168657 0.031658 -0.130043 0.281062 -0.069286 -0.104750 0.140900 0.365535 0.127166 0.048587 -0.413795 0.491781 0.577598
side 0.314680 -0.573960 0.111643 0.003012 0.114941 -0.080826 0.040649 -0.281816 -0.075205 0.360144 -0.438407 -0.345932 -0.182560 -0.001196 0.278825 -0.404648 -0.316504 -0.109616 0.155514 -0.409965 0.838009 0.084713 0.079575 -0.605828 -0.429588 0.011441 -0.144380 0.014432 0.059857 -0.064974 0.134988 -0.047424 -0.157066 0.041186 0.258377 0.088159 0.005671 -0.098264 0.396560 0.677625
spoke 0.438435 -0.654118 0.126580 0.151924 0.089825 0.145125 0.087593 -0.200329 -0.154643 0.286670 -0.159393 -0.394242 -0.239871 -0.084557 0.267948 -0.408569 -0.414503 -0.182997 0.102479 -0.377212 0.838718 0.118049 0.244824 -0.458260 -0.465213 -0.033772 0.115655 0.193072 -0.063060 -0.101189 0.094985 -0.057957 0.006026 0.300845 0.484966 0.274583 -0.160762 -0.447058 0.484680 0.652037
talking 0.408314 -0.534788 0.320232 0.195893 0.059247 -0.063058 0.060351 -0.141083 -0.235938 0.290239 -0.072949 -0.411383 -0.243986 0.111290 0.155038 -0.299185 -0.386443 -0.102076 0.029140 -0.251195 0.843111 0.151345 0.060332 -0.352974 -0.476501 0.118810 -0.029191 0.250070 0.031059 -0.085576 0.158077 -0.148332 -0.179387 0.145865 0.303645 0.107238 -0.272009 -0.338001 0.326661 0.528804
am 0.279780 -0.526863 0.157270 0.385282 0.138497 0.107404 0.078654 -0.269631 -0.228410 0.325903 -0.046666 -0.313485 -0.317943 0.044525 0.296326 -0.486255 -0.266248 -0.150245 0.118043 -0.414079 0.823231 0.022776 0.077644 -0.414520 -0.461193 -0.021582 0.134905 0.138101 0.096560 -0.204093 0.160629 -0.050909 0.138484 0.228886 0.384753 0.036423 -0.180027 -0.304212 0.269932 0.602045
bit 0.388309 -0.550411 0.125047 0.254762 0.147471 0.037745 0.047713 -0.286036 -0.201044 0.254540 -0.309321 -0.464125 -0.187619 0.001580 0.189253 -0.397530 -0.299082 0.011846 -0.043630 -0.353427 0.835537 0.141440 0.254606 -0.407618 -0.370895 -0.020490 -0.035243 0.229013 0.021906 -0.026077 0.234721 -0.105413 -0.061250 0.201483 0.335004 0.128452 -0.065966 -0.091488 0.336419 0.659966
doesn 0.227912 -0.262333 0.089427 0.280833 -0.009422 0.091611 0.021309 -0.406422 -0.227898 0.375498 -0.144091 -0.329671 -0.110689 -0.124815 0.225562 -0.251298 -0.366741 -0.125193 0.009957 -0.232794 0.747848 -0.048565 0.209928 -0.277917 -0.207837 0.111874 0.072394 0.099065 0.205094 -0.102452 0.291688 -0.076681 0.020348 0.197060 0.262115 -0.048661 -0.058348 -0.181724 0.224408 0.633534
garden 0.429963 -0.538734 0.156073 -0.010156 0.083824 0.115043 -0.003901 -0.317863 -0.214636 0.341900 -0.207816 -0.359805 -0.302201 -0.180388 0.165050 -0.311903 -0.250747 -0.152213 0.203109 -0.367637 0.811346 0.118977 0.202427 -0.514386 -0.364590 0.131970 -0.076568 -0.050870 -0.068841 -0.119748 0.083008 0.043010 -0.132243 0.001111 0.224314 -0.009282 -0.111012 -0.155126 0.269726 0.604693
hastily 0.458741 -0.506642 0.212521 0.136564 0.131191 0.056652 0.030475 -0.258335 -0.242080 0.224391 -0.123478 -0.341023 -0.236547 -0.081844 0.173929 -0.297955 -0.325169 -0.010224 0.171603 -0.344067 0.814920 0.016715 0.185515 -0.358023 -0.355906 0.084288 -0.031623 0.076983 0.096190 -0.138264 0.120540 -0.137291 -0.093024 0.112036 0.385966 0.011562 -0.079865 -0.139721 0.431815 0.545486
high 0.213620 -0.417642 0.108415 0.229203 0.030834 -0.084565 0.058662 -0.185835 -0.035263 0.102338 -0.179359 -0.375668 -0.174727 -0.027659 0.156183 -0.152743 -0.226190 -0.090486 0.103267 -0.336803 0.475400 0.075986 0.185826 -0.227044 -0.264419 -0.086683 0.074247 0.021127 0.065802 -0.137791 0.130532 -0.179399 0.022386 0.111890 0.400312 0.025748 -0.187239 -0.269090 0.234619 0.472462
indeed 0.355055 -0.549460 0.207106 0.214062 0.197739 0.133653 0.041383 -0.205746 -0.201858 0.343689 -0.113499 -0.466154 -0.171547 -0.118793 0.152134 -0.266301 -0.250902 -0.127074 0.099505 -0.425718 0.774487 -0.035709 0.168014 -0.414449 -0.332664 0.015533 0.109847 0.213423 -0.027359 -0.104147 0.235929 -0.165828 -0.065048 -0.042363 0.198362 0.030719 -0.107268 -0.197810 0.263102 0.541831
mad 0.283636 -0.467414 0.220387 0.399546 0.112268 0.170916 0.048205 -0.201106 -0.357590 0.321665 -0.126762 -0.332263 -0.167317 0.038526 0.159234 -0.481827 -0.325408 -0.170685 -0.030493 -0.117855 0.764248 0.082575 0.315596 -0.312345 -0.320325 -0.099983 0.120279 0.139492 0.225685 -0.015774 0.163903 -0.039898 -0.028775 0.196680 0.234431 -0.114893 -0.178420 -0.035012 0.299864 0.606021
ran 0.318796 -0.536489 0.319278 -0.041525 -0.022046 -0.041411 0.042810 -0.313170 -0.156749 0.257671 -0.191135 -0.351369 -0.142886 -0.012240 0.133895 -0.245189 -0.299862 -0.067878 0.144168 -0.444391 0.701744 0.164245 0.191565 -0.392820 -0.343146 -0.043743 -0.091136 -0.008887 -0.004450 0.056098 0.145202 -0.174689 -0.048487 0.112917 0.303385 0.224537 -0.158250 -0.397243 0.408466 0.504568
turned 0.396313 -0.512974 0.158052 0.136742 0.100051 0.056924 0.096575 -0.448755 -0.239806 0.322843 -0.231981 -0.449187 -0.237804 -0.127893 0.185059 -0.308188 -0.370179 -0.043115 0.052831 -0.442086 0.936485 0.141421 0.071763 -0.544651 -0.515777 -0.005079 -0.108259 -0.019510 0.030209 -0.060946 0.220031 -0.085182 -0.076799 0.174867 0.416301 0.076586 -0.195182 -0.195374 0.368819 0.659580
under 0.401753 -0.476206 0.104087 0.064708 0.145131 -0.012517 0.065206 -0.180517 -0.197738 0.214483 -0.308614 -0.448187 -0.055692 -0.093564 0.065379 -0.267965 -0.341239 -0.106464 -0.027172 -0.428271 0.681833 0.117916 0.138784 -0.315906 -0.311509 0.014238 -0.071251 0.056132 0.167670 -0.039118 0.255348 -0.026412 -0.036207 0.001542 0.174945 0.094103 -0.135135 -0.127182 0.275841 0.634999
air 0.451678 -0.527998 0.149591 0.029095 0.012612 0.012611 0.149678 -0.234419 -0.136127 0.389716 -0.142966 -0.385736 -0.281655 0.015596 0.190992 -0.432499 -0.201130 0.029477 0.041501 -0.437541 0.747487 -0.027811 0.197409 -0.268267 -0.405523 0.072478 -0.095372 0.191929 0.139176 0.031989 0.288995 -0.044204 0.099544 0.086465 0.273408 0.077972 -0.224133 -0.178885 0.329734 0.582369
arm 0.401988 -0.484452 0.183456 0.006649 0.101999 0.016945 0.170232 -0.348253 -0.138724 0.422198 -0.224043 -0.460080 -0.059277 -0.010269 0.190802 -0.326444 -0.342310 0.047802 0.019760 -0.449452 0.688466 0.008949 0.216949 -0.512231 -0.467758 -0.025887 -0.047946 -0.025670 0.068802 -0.088088 0.227299 -0.220027 -0.137450 -0.007671 0.234673 0.278543 -0.085920 -0.166631 0.198355 0.620054
because 0.373191 -0.525141 0.120135 0.217129 0.002884 0.003207 0.139386 -0.313127 -0.165718 0.337806 -0.230203 -0.310173 -0.303633 -0.114587 0.156478 -0.455752 -0.319579 -0.050928 0.015434 -0.383744 0.862238 -0.022647 0.111189 -0.409760 -0.395686 -0.020607 0.019915 0.116252 0.148311 -0.142930 0.319931 -0.092684 -0.053939 0.112020 0.311388 0.180346 -0.107329 -0.189684 0.356891 0.638103
called 0.363391 -0.584921 0.176865 0.253547 0.096836 0.033112 0.138574 -0.408247 -0.262386 0.316234 -0.345113 -0.368282 -0.218144 -0.051366 0.243302 -0.288906 -0.350491 -0.121091 0.084902 -0.327770 0.738918 -0.045965 0.044083 -0.325744 -0.338260 -0.049245 -0.112796 0.005688 0.043398 -0.079093 0.141774 -0.058324 0.005670 0.120722 0.183371 0.038763 -0.153706 -0.185322 0.313399 0.512035
done 0.359699 -0.444119 0.147298 0.204622 0.147544 -0.031770 0.074259 -0.256465 -0.322473 0.130150 -0.134010 -0.413802 -0.251546 -0.014705 0.192783 -0.311073 -0.310280 -0.218502 -0.076084 -0.380951 0.835362 0.168526 0.252142 -0.326226 -0.275903 0.028826 0.133098 0.179568 0.056769 -0.085718 0.172989 -0.041059 0.048053 0.161655 0.322858 0.053515 -0.148549 -0.246091 0.260240 0.686940
face 0.401180 -0.539981 0.250894 0.213881 0.024200 0.021189 0.036562 -0.356801 -0.232362 0.283426 -0.376003 -0.462877 -0.179448 0.052173 0.156921 -0.491531 -0.236957 0.045401 -0.000436 -0.478008 0.830077 0.246116 0.145509 -0.392430 -0.499420 -0.030759 0.007452 0.089990 -0.090928 -0.081355 0.127839 -0.098472 -0.185524 0.184111 0.396578 0.170161 -0.076220 -0.386753 0.397094 0.747193
gave 0.401996 -0.469423 0.173651 0.229102 0.159782 0.113320 0.165873 -0.285538 -0.209795 0.245875 -0.145421 -0.365196 -0.106799 -0.003469 0.037658 -0.267459 -0.319507 -0.156840 -0.061888 -0.297648 0.737943 0.103082 0.269865 -0.320793 -0.389618 -0.006073 0.130771 0.042199 0.143782 -0.022467 0.168471 -0.180293 -0.050420 -0.059443 0.362641 0.086060 -0.069421 -0.107903 0.316156 0.705642
idea 0.316613 -0.516642 0.180326 0.314446 0.141094 -0.011298 0.039681 -0.399632 -0.295102 0.297956 -0.363087 -0.319622 -0.169510 -0.129265 0.247742 -0.377658 -0.293321 -0.152351 0.121118 -0.349165 0.853341 0.025821 0.168873 -0.487411 -0.516601 0.088929 0.122427 0.200793 0.069006 -0.074416 0.261064 -0.141719 -0.014403 0.171070 0.362537 -0.015071 -0.204367 -0.201173 0.217922 0.630058
knew 0.226022 -0.413584 0.142367 0.130596 0.056883 0.071924 -0.000068 -0.277889 -0.153911 0.350310 -0.211733 -0.202614 -0.373790 0.054808 0.349557 -0.413940 -0.211676 -0.089311 0.141735 -0.356663 0.752256 -0.074914 0.256467 -0.470643 -0.424457 0.097240 0.051186 -0.036454 0.021217 -0.147674 0.087043 -0.040256 -0.167881 0.238362 0.414489 0.174140 -0.146053 -0.111841 0.238260 0.554532
low 0.515476 -0.397509 0.216275 0.241692 0.011314 0.247750 0.177252 -0.357898 -0.046083 0.276840 -0.180977 -0.326143 -0.170082 -0.050139 0.004915 -0.234468 -0.391867 -0.072886 -0.181652 -0.301697 0.883032 -0.007431 0.014114 -0.212514 -0.375978 -0.018500 0.023635 0.326176 0.068081 -0.082651 0.198716 -0.061320 0.102701 0.039202 0.202872 -0.041082 -0.082968 -0.111821 0.411796 0.611662
near 0.297569 -0.491593 0.041358 -0.059688 0.133196 -0.016846 0.127679 -0.200624 -0.047918 0.306314 -0.143492 -0.424630 -0.148894 0.015380 0.035797 -0.323482 -0.286460 -0.175741 0.057980 -0.314238 0.575230 0.057075 0.085278 -0.423410 -0.390056 0.000701 -0.103372 0.090237 0.071161 -0.012483 0.151815 0.015354 -0.065297 0.115574 0.313467 0.231307 -0.135400 -0.163605 0.321825 0.456437
saying 0.295275 -0.443565 0.143982 0.299468 0.111857 0.037058 0.024501 -0.311222 -0.240629 0.369996 -0.253353 -0.324079 -0.256229 0.001623 0.189460 -0.403122 -0.144627 -0.034155 0.144023 -0.350920 0.609081 0.099988 0.059055 -0.456897 -0.468364 0.123416 -0.116635 0.090054 0.063441 -0.102078 0.285610 -0.182198 -0.256140 0.017611 0.222531 0.054734 -0.213974 -0.175836 0.339833 0.612588
seen 0.186896 -0.429876 0.193497 0.325675 0.147035 0.186971 0.056717 -0.195062 -0.250894 0.303563 -0.176089 -0.271051 -0.149893 0.045673 0.061783 -0.318411 -0.320388 -0.151339 0.011757 -0.181932 0.763267 0.108580 0.116355 -0.290420 -0.333098 -0.043919 0.075165 0.168937 0.118587 -0.195546 0.129823 -0.071595 -0.002783 0.096826 0.205069 0.035222 -0.223137 -0.135936 0.264533 0.514245
speak 0.352065 -0.423616 0.242040 0.267126 0.016559 0.053283 0.011231 -0.331402 -0.278042 0.313370 -0.163461 -0.382147 -0.148387 -0.066394 0.316231 -0.425520 -0.388565 -0.019576 0.010370 -0.331670 0.817238 -0.055316 0.100910 -0.306408 -0.455893 0.111804 -0.005900 0.130731 0.016535 -0.107642 0.132531 -0.174538 -0.067066 0.160122 0.415191 0.006281 -0.257823 -0.157553 0.212211 0.650730
where 0.219044 -0.499226 0.169497 0.356413 0.061277 0.096620 0.088425 -0.304607 -0.368657 0.257329 -0.090356 -0.372544 -0.229456 -0.041446 0.286338 -0.353795 -0.346647 -0.082024 -0.024530 -0.331759 0.868031 -0.024653 0.132993 -0.392672 -0.338658 0.169901 0.141052 0.077604 0.022401 -0.047296 0.265934 -0.112296 0.040785 0.286379 0.296326 0.077208 -0.170827 -0.188646 0.245409 0.531883
anxiously 0.402517 -0.628482 0.245848 0.131874 0.184473 -0.125575 -0.056886 -0.167831 -0.251770 0.325805 -0.221168 -0.404768 -0.208456 0.082492 0.224661 -0.262754 -0.375319 0.000519 0.112411 -0.503012 0.707305 0.165824 0.154920 -0.494760 -0.391366 0.004768 -0.133641 0.038360 0.048200 -0.140986 0.080061 -0.039329 -0.054899 0.047376 0.254640 0.133347 -0.061137 -0.270585 0.369165 0.571227
baby 0.370016 -0.520507 0.246332 -0.031994 0.083344 0.099942 0.118767 -0.329230 -0.235124 0.328231 -0.372920 -0.473567 -0.322163 -0.066374 0.289660 -0.302150 -0.229729 0.016675 0.143992 -0.331768 0.691852 -0.057876 0.098652 -0.398603 -0.267470 0.099501 -0.077958 -0.004239 0.113479 -0.014405 0.281859 -0.143102 0.058277 0.152065 0.341122 0.112643 -0.173293 -0.206782 0.366677 0.561218
beginning 0.387786 -0.420769 0.190272 0.197733 0.192146 -0.045825 0.107842 -0.298642 -0.194826 0.273644 -0.226414 -0.254063 -0.285440 -0.074853 0.116056 -0.369944 -0.223197 -0.022514 0.163444 -0.425666 0.828256 0.039294 0.082968 -0.397023 -0.422642 0.082354 0.058952 0.107640 0.170787 -0.188548 0.140569 -0.188508 -0.013937 0.206755 0.344230 0.113869 -0.147822 -0.238482 0.274357 0.532999
